0.19096445	0.1621487	-1.0449153	-0.7568441	0.42689446	-2.2608411	-0.6434572	-0.2561795	-0.15077083	-0.2077954	-0.00097619416	-0.73019016	0.012489369	0.7296837	0.19899075	0.74913543
0.18497458	0.3516305	-0.713545	-0.09502323	-0.8813833	-1.0196527	-0.32110006	-1.6501024	-0.3460213	-0.016653428	0.3438838	-0.4289683	0.2548247	-0.6444011	-0.13262604	0.11609446
-0.29804686	-0.64001995	0.3634833	0.101268224	-0.06258751	-0.66295254	-0.33683077	-0.25074646	-0.49303114	-0.16399334	0.58266723	-0.7855975	0.101344116	-0.23776902	-0.3298859	0.30393052
0.01752049	0.12936227	-0.3627087	-0.26547408	0.4127835	-0.24376464	-0.18832658	0.048071273	-0.039492495	-0.10033304	-0.32041347	0.14389004	0.08187218	0.2477884	0.0071026487	0.14867777
0.32762888	-0.22263324	0.34285364	-0.7274974	0.7004114	-0.46369535	-0.13354509	0.479875	-0.4669042	0.4368394	0.016011544	-0.27826595	0.48668268	-0.102131024	-0.31280115	-0.42544731
-1.2958626	-1.368249	0.8431058	1.0105321	0.008536775	-0.0149626	-0.22045326	0.38488463	-0.31327373	-0.74319386	1.1868653	-1.0182042	-0.571617	0.21223857	-0.28211063	1.083006
0.17474456	-0.026509533	0.1318506	-0.18122984	-0.21581599	-0.61533356	0.102903	-0.146593	-0.12072924	0.23688242	0.44572306	-0.48597077	0.067160964	-0.10373103	0.017518232	-0.08980339
0.19629279	-0.107002616	0.35346973	-0.3356689	1.0524794	0.18712835	0.49259958	1.4183477	0.3590848	0.16201349	-0.33138895	0.21106355	-0.4820259	0.8770303	0.34650993	-0.0474333
-0.20918036	-0.06843927	-0.08095495	0.16419329	0.16245832	-0.0015121282	0.04678076	0.38443825	0.36252627	-0.20782328	-0.11166869	0.026568757	-0.4478307	0.4966772	0.27877423	0.31723064
-0.29223955	0.6471086	-1.0604855	0.6132184	-0.96401733	-0.0569999	0.20095776	-0.533114	1.1055976	-0.5729963	0.01655196	0.13558877	-1.3360858	0.8375308	1.0902336	0.6426327
-0.14097685	0.051512107	-0.19601096	0.16900113	-0.30683902	-0.3592512	-0.10577299	-0.35142335	0.1408981	-0.14503707	0.2515788	-0.2817398	-0.23961627	0.07608017	0.12562402	0.35183752
0.31113392	0.17542022	0.05657415	-0.37020883	-0.16263103	-0.50337416	0.2351766	0.09567764	0.1274328	0.3550197	0.22003235	-0.22954397	0.03207033	0.08723363	0.09233803	-0.34517798
0.7218308	0.51513726	-0.23580045	-1.1034043	1.8321204	0.46414524	0.14882874	1.2822044	0.2014647	0.5148503	-1.2487178	0.8236387	0.2538103	0.6477649	0.19320248	-0.7077713
0.24519047	0.4758358	-0.65212554	-0.27290338	0.04923466	-0.25151643	-0.26161048	-0.5093485	-0.06708342	-0.0045412485	-0.37514523	0.14799295	0.20602547	-0.10910376	0.005647883	0.039821725
0.67690086	0.3906354	-0.4160112	-0.79901403	0.29695097	-0.51194507	-0.56367993	-0.94254875	-0.85931945	0.5775995	-0.45906293	0.10724057	0.9999822	-0.92927897	-0.7494027	-0.7079522
0.61285275	0.3953899	-0.23166853	-0.73352844	0.31709117	-0.38870212	-0.15281314	-0.04746769	-0.29761305	0.50564754	-0.2962914	0.06008004	0.54079294	-0.21829501	-0.15170085	-0.512962
-1.4129649	-1.4598893	0.5581668	0.89646953	0.6155667	0.4518205	-1.2648828	0.15128727	-0.7767633	-0.95340425	0.6089149	-0.73135597	0.07523649	-0.3540586	-0.8539194	1.1401913
0.16649395	0.8702279	-1.213403	-0.20302245	0.298373	0.11714607	-0.28749335	-0.36390492	0.1038752	-0.2673385	-0.972058	0.8518089	0.0528777	0.24008304	0.20593119	0.096622884
-0.033260968	-0.06883806	-0.13912557	-0.14814372	0.08318895	-0.25273666	-0.45132065	-0.36741614	-0.3904753	-0.0220761	-0.000660579	-0.13913229	0.4566651	-0.3410719	-0.40241358	0.0014075357
0.2229496	0.06684277	0.028735101	-0.29979444	0.25404763	-0.34295258	0.04555458	0.07613593	-0.09357442	0.16533788	-0.03955194	-0.13504905	0.15857491	-0.010159076	-0.02090047	-0.10470402
-0.06041005	-0.038297724	-0.31276876	-0.124186374	0.47658068	0.0057247495	-0.4079033	-0.113606304	-0.33802664	-0.20998383	-0.5127138	0.28900957	0.27025852	-0.033766117	-0.19390824	0.14116602
-0.5119334	-1.005221	0.98135346	0.11082856	0.2540384	-0.48666897	-0.056015745	0.7161317	-0.42698726	0.09321472	0.9889946	-0.9662901	0.04120301	-0.13749234	-0.34148768	0.27995637
-0.17887142	-0.07304867	-0.19087179	0.38760224	-0.6051509	-0.3138204	0.09287912	-0.4812675	0.20689344	-0.19112277	0.39111292	-0.2847899	-0.43885645	0.0692656	0.19181119	0.27880684
0.7003929	0.57791376	-0.076750025	-0.4899574	-0.49409238	-0.682195	0.473638	-0.07898855	0.22429013	0.53056	0.4033242	-0.47907323	-0.08239924	0.007092969	0.269892	-0.53120387
0.3020505	0.10144101	0.17260677	-0.36530653	-0.061873022	-0.5074184	0.22194088	0.08489671	0.042924706	0.3617949	0.28404233	-0.3171151	0.04734103	0.0099546155	0.11601118	-0.32644147
0.34470922	0.13511612	-0.22673768	-0.4635513	0.34762502	-0.20822898	-0.21590567	-0.21770489	-0.31757435	0.232077	-0.29432	0.10838787	0.49827403	-0.23779668	-0.27057633	-0.26328906
-0.15971127	-0.27694675	0.107641466	-0.01638373	0.5133125	0.1322814	-0.036512252	0.45406252	0.011445011	-0.22073409	-0.15807492	0.035497434	-0.088396214	0.26020578	-0.02220689	0.22696105
0.1554732	-0.20042321	0.282028	-0.4098412	0.4872409	-0.28299767	-0.09009217	0.38782325	-0.2637889	0.26276758	0.022192525	-0.12061997	0.28573644	-0.005007809	-0.188272	-0.20689346
1.5484513	0.8733749	1.163467	-1.1387914	-2.066865	-1.7130517	1.8263369	-0.89631796	1.0777704	1.5820929	2.031012	-1.7394423	-1.2136945	-0.361753	1.1559389	-1.4637817
0.20992981	-0.06645667	-0.014740791	-0.28386158	-0.004311647	-0.39704672	-0.084317766	-0.38870838	-0.31026947	0.18886675	0.10459401	-0.2489549	0.33505723	-0.349514	-0.25964487	-0.23576197
0.06891233	0.11854135	-0.14425759	-0.14989758	0.30477178	0.117343985	0.18886782	0.40580016	0.25681034	-0.014238744	-0.2949814	0.1991289	-0.24465452	0.36165273	0.20101057	0.019824157
1.4764268	0.8292689	0.5823871	-1.2360333	-1.2144076	-1.1722018	1.5067207	-0.02475375	0.7758483	1.2611678	1.174125	-0.80166185	-0.8075321	0.13570096	1.0254954	-1.2023739
1.2250701	1.5810394	-1.6731675	-1.1104513	1.6501195	0.5666255	-0.09133598	0.6424484	0.22267757	0.39326108	-1.7363571	1.4978873	0.34123212	0.45668826	0.29061648	-0.8225906
-0.025854573	-0.13728918	0.12672456	-0.0343665	0.28089294	-0.0428681	0.1619885	0.4389332	0.12428214	0.0045926096	0.04863178	-0.012861315	-0.26431093	0.30331558	0.20371361	0.06127444
0.44808635	0.35171157	-0.058161393	-0.5013343	0.27198228	-0.10651654	0.27732238	0.3528993	0.21884646	0.41237488	-0.18820387	0.15825039	0.04251435	0.21986227	0.25835967	-0.41837847
-0.5424283	-0.38687116	0.13074519	0.5643144	-0.2821061	-0.021775713	-0.106250554	-0.082109086	0.16457643	-0.47324514	0.31230295	-0.25332567	-0.4871794	0.18280306	0.08993099	0.55188805
-1.5442114	-1.6819781	1.4818096	0.22047974	1.6550329	-0.48934153	-1.5063348	1.5488809	-1.3562121	-0.2716204	1.4440928	-1.4905179	1.3453867	-1.1210153	-1.4164581	0.86769986
0.097003445	0.11072429	-0.19482554	-0.24617477	0.40023187	-0.09256311	-0.11467436	0.11804111	-0.08968014	-0.0021204841	-0.33333609	0.23344426	0.10975397	0.06825217	-0.06379686	0.009787714
0.54521006	-0.07351335	0.50338984	-0.7222094	-0.09775852	-0.66272086	0.44408125	0.38541093	-0.064702876	0.8786994	0.5642422	-0.5553917	0.090001665	-0.028227078	-0.00094685727	-0.7102948
0.2954583	0.46655595	-0.73326766	-0.4492975	0.6426632	0.019223684	-0.6771354	-0.40712956	-0.52848464	0.058532618	-0.8771965	0.6038242	0.65284765	-0.33086634	-0.4574015	-0.1303821
0.2686215	0.21592224	-0.2802144	-0.31531328	0.42874518	-0.06687065	-0.1542133	0.10051122	-0.13873923	0.14467539	-0.4192327	0.3152426	0.2645248	0.07960122	0.009957092	-0.19686851
0.21842287	-0.042913307	0.1167056	-0.28430447	-0.0051138056	-0.48256856	-0.03852635	-0.124663725	-0.30489203	0.2610931	0.20458384	-0.320519	0.31976295	-0.25309047	-0.24297851	-0.19981682
0.2679135	0.26489732	-0.26269096	-0.47073707	0.29016852	-0.19365554	-0.42099988	-0.34432432	-0.4200342	0.20460944	-0.3622657	0.17210703	0.5598013	-0.4075515	-0.33995697	-0.19574344
-0.0055649118	0.27550033	-0.6269439	-0.056641083	0.16199958	0.07287481	-0.45777878	-0.51189595	-0.14572814	-0.20934333	-0.45531982	0.35973698	0.2612262	-0.18650824	-0.099062465	0.18805209
0.28225008	0.3498888	-0.3712834	-0.29784384	0.17499238	-0.18611096	-0.17990229	-0.3035366	-0.12599826	0.18174969	-0.25844657	0.19135153	0.30701447	-0.15359925	-0.124717586	-0.21318251
0.26596588	0.43529773	-0.4125073	-0.4016055	0.91498375	0.47674283	0.08520489	0.6913151	0.25916213	-0.02822225	-0.8855762	0.7162201	-0.04988816	0.55885464	0.34359568	-0.17143744
0.26926523	0.3334428	-0.45473778	-0.40253034	0.46293154	-0.023839759	-0.34413016	-0.09036814	-0.27031294	0.17107292	-0.5219041	0.3997559	0.48955315	-0.11001501	-0.14856987	-0.2051837
-0.93743134	-0.29472366	-0.8655801	0.88482827	-0.36148608	0.412647	-0.545475	-0.50601596	0.45318288	-1.0817324	-0.36934212	0.20897354	-0.95286965	0.5450239	0.38221747	1.0590063
-0.8061548	-0.038177814	-1.0443891	0.93940496	-0.75643486	0.44078127	-0.31720307	-0.6728447	0.8241378	-0.9969609	-0.2707176	0.35291767	-1.1976207	0.6665498	0.7245615	0.9616559
-0.6762443	-0.29437438	-0.34516755	0.80248415	-0.39959854	0.27923557	-0.38039497	-0.57078326	0.2360357	-0.7969664	-0.060742553	0.07922954	-0.6063428	0.22188768	0.13343492	0.81782734
-0.3158156	-0.5816452	0.5216106	-0.06944909	0.8831512	0.08967281	-0.33563867	0.5775608	-0.46588704	-0.07080168	0.061156567	-0.21836345	0.30847993	-0.025142733	-0.4216593	0.18486096
0.26028463	-0.2798692	0.41225976	-0.5164372	0.3766696	-0.35806942	0.0016577957	0.2988961	-0.32236648	0.45998526	0.15359454	-0.36718377	0.43172464	-0.23087989	-0.26613775	-0.3568533
0.50679445	0.6714819	-0.72097653	-0.5700772	0.5329622	-0.061503753	-0.41089413	-0.29749376	-0.29346332	0.18480001	-0.79771894	0.54179335	0.53284454	-0.22217323	-0.2516963	-0.30275202
0.68948317	0.63188124	-0.38637498	-0.6887138	0.21791685	-0.3373514	0.07570775	-0.20443997	-0.112860106	0.49033546	-0.30584607	0.24466799	0.38424864	-0.07454032	0.016559657	-0.5951673
-1.1548152	-1.4505323	1.3928313	0.1172275	1.4225086	-0.45010155	-0.9214168	1.5182374	-1.103196	0.11726666	1.1735765	-1.2682614	1.0698907	-0.8287146	-1.1587167	0.6071844
-0.12528607	0.013431707	-0.42642003	-0.019355394	0.30050316	0.04854102	-0.45476475	-0.25944775	-0.15780254	-0.2672341	-0.5539991	0.26197496	0.15532573	-0.02420005	-0.104035065	0.25115097
-0.39311248	-0.50777304	0.1679665	0.24168311	0.0022789596	0.06957161	-0.25916818	0.001554971	-0.08989449	-0.31231207	0.16070671	-0.26987264	-0.08035816	-0.07931263	-0.22520328	0.33415085
-0.15888217	0.5943137	-0.8085199	0.3557167	-0.74077743	-0.21943954	0.0635	-0.5060303	0.7515632	-0.4023154	0.08091819	0.059288282	-0.8873414	0.46899036	0.7622411	0.4594683
-1.3171775	-1.4834982	1.2344457	0.3509051	1.3926218	-0.31021994	-1.2670472	1.1561266	-1.1950604	-0.32699186	1.2648212	-1.3086998	0.97100824	-0.9485511	-1.2002234	0.85277355
-0.36315894	-0.06067727	-0.27466184	0.23540875	0.21121043	0.32612148	-0.32223848	-0.09248741	0.029052334	-0.46247768	-0.37644047	0.31942472	-0.08866288	0.19585057	-0.036676828	0.3787774
1.0344391	0.80602	-0.78162014	-1.2131263	0.8177817	-0.41781574	-0.92205006	-1.2098039	-1.2345934	0.96542895	-0.8828021	0.47494325	1.4121529	-1.3000344	-1.1334159	-1.2058033
1.0072522	0.59167355	0.8499646	-0.51579314	-1.5672972	-1.2498853	1.4433558	-0.3254677	1.1243552	1.1509305	1.4911078	-1.1946919	-1.2826872	0.071253024	1.1328343	-0.9438783
0.46813607	0.9560442	-1.6440868	-0.37134716	1.4009287	1.0817002	0.15522994	0.75483334	0.63794607	-0.33935755	-1.6661345	1.4312271	-0.3752375	0.8518473	0.60248554	-0.15931208
0.827088	0.74095136	-0.45828193	-0.77920437	-0.11575923	-0.6057315	-0.17948633	-0.8281017	-0.6210184	0.6683664	-0.11466679	-0.06132967	0.8231198	-0.7153031	-0.43222955	-0.7837553
0.4043609	0.069872536	-0.009540327	-0.59463394	0.4474442	-0.30284128	-0.4554149	-0.24169476	-0.6594426	0.48072606	-0.24702391	-0.03568397	0.76058614	-0.6688096	-0.59213126	-0.43789542
0.24317873	-0.20329908	-0.23958665	-0.78872067	1.4412597	-0.16786061	-1.4332374	-0.5452599	-1.3855172	0.4308127	-0.9235575	0.2874273	1.419675	-1.314384	-1.3862668	-0.3034458
0.28773713	0.2684247	-0.25192064	-0.19909616	0.11462936	-0.08293428	0.044892937	0.028321125	0.09800723	0.14232041	-0.29837927	0.1983625	0.04286407	0.17423241	0.09707868	-0.1660464
-1.1580739	-0.054101616	-1.6146061	1.262061	-0.57482344	1.1359881	-0.6496231	-0.6380316	0.96879697	-1.4565555	-1.1681465	1.0150391	-1.4512814	0.94186515	0.83911115	1.3137512
0.22114243	0.17142886	0.08618989	-0.019228512	-0.6510671	-0.48424083	0.7029755	0.11328791	0.64498156	0.18075766	0.61643517	-0.34728044	-0.8768568	0.47297135	0.6900275	-0.051292397
-0.34803027	-0.17087594	-0.31932533	0.27677685	0.14229307	0.08478343	-0.48371905	-0.19962074	-0.11370885	-0.42130157	-0.29355755	0.09605393	-0.040808335	-0.020467984	-0.15850446	0.50605994
-0.610108	-0.7202826	0.3093484	0.28344434	0.49414185	0.14560615	-0.6244396	0.12994511	-0.49830943	-0.39134184	0.13652745	-0.35184985	0.30145314	-0.154535	-0.54366255	0.48394144
1.0877392	0.9176947	-0.5626502	-1.0177889	0.3410308	-0.52675	-0.078442514	-0.28570697	-0.33828345	0.9136412	-0.36096457	0.29632512	0.5951382	-0.28577664	-0.15343776	-1.074759
-0.14882943	0.122467756	-0.32785186	0.060809396	0.027983917	0.10892053	-0.19622093	-0.16457736	-0.039267097	-0.27240947	-0.28423157	0.24995999	-0.060374223	0.10576271	0.0076502585	0.16282363
0.54997855	0.4827999	-0.16234496	-0.44327483	0.07204361	-0.24586937	0.3473609	0.262659	0.24021772	0.36470634	-0.14154154	0.15411024	0.0006023585	0.16863161	0.27341056	-0.41454524
-0.30399525	-0.662036	0.7322	0.17146578	0.013302908	-0.36915404	-0.13748582	0.14981993	-0.42701697	0.10272367	0.91164494	-0.84552777	0.1143107	-0.3559561	-0.37347442	0.115452826
0.016261814	0.36083785	-0.66671354	-0.08169249	0.16897203	0.065414146	-0.277245	-0.33625808	0.03461656	-0.21605344	-0.50168437	0.49459937	0.09408033	0.09006611	0.09079181	0.14766541
-0.17780721	-0.027915807	-0.0078104846	0.20610479	0.067880124	0.012386624	0.10798153	0.2554795	0.2483659	-0.19905008	0.014129245	-0.036371443	-0.3691489	0.33268312	0.17856887	0.2683657
0.106226176	0.06213346	0.13182458	-0.32417393	1.4974394	0.57526594	0.21441785	1.2608076	0.25939283	0.03949365	-0.63036925	0.37436548	-0.24846657	0.6818558	0.23584904	-0.047762886
-0.8790833	-1.2819467	1.1447775	-0.39550537	1.2393733	-0.7024563	-1.026719	1.2156979	-1.228584	0.3851339	1.1988217	-1.2641597	1.1924307	-1.0799925	-1.2309208	0.10850108
0.44715133	0.21850443	-0.07883874	-0.5896751	0.37718135	-0.29002428	-0.16406749	-0.02009007	-0.4204149	0.44404292	-0.18224287	0.050954368	0.57999	-0.2576154	-0.23776463	-0.52387345
0.6593032	0.7455237	-0.45998603	-0.7437599	0.092442974	-0.5261679	-0.2094388	-0.68717134	-0.5474885	0.5189589	-0.22717237	0.14694639	0.7089232	-0.64195424	-0.32977387	-0.6542333
-1.1075511	-1.2249932	0.72994316	0.5540925	0.5260121	0.013308888	-1.084409	0.1836028	-0.8410057	-0.53172696	0.8907548	-0.8578132	0.36633095	-0.7289116	-0.82675016	0.7477928
-0.7530375	-0.31825742	-0.48270023	0.7518012	-0.5456141	0.1515545	-0.67497295	-0.9333086	-0.030604396	-0.81166005	-0.118368745	0.014607926	-0.38705555	-0.04632366	-0.07731623	0.80288476
0.021352438	0.07236896	-0.21118267	-0.15380512	0.11349499	-0.10297404	-0.28822955	-0.29522264	-0.32194945	-0.0127396155	-0.23448333	0.13026473	0.37549737	-0.21781357	-0.24343571	-0.05199956
-0.5237061	-0.14461815	-0.27508494	0.58070403	0.043562606	0.4364397	-0.1030818	0.054421864	0.3340193	-0.6824724	-0.21288593	0.20360078	-0.6585714	0.44838297	0.2705373	0.64383423
-0.38870138	-0.18081228	-0.34025607	0.3164524	0.052683048	0.22961113	-0.4086931	-0.31390768	-0.07989315	-0.47572318	-0.32681003	0.13374841	-0.12930185	0.088520125	-0.012056465	0.4799323
1.126635	1.1716088	-0.9046234	-0.8988888	1.7356123	0.9786553	1.1044368	1.5306846	1.2114992	0.3131156	-1.5361217	1.2482467	-1.0550151	1.3539442	1.1819135	-0.66162163
0.29424363	-0.42553136	0.75042266	-0.647818	0.23211582	-0.6555257	-0.15572825	0.24568354	-0.65609485	0.7486529	0.59566724	-0.7475061	0.82321197	-0.7040093	-0.6593211	-0.6290198
0.022711001	0.35134032	-0.65420806	-0.07631851	0.46266642	0.3498686	-0.21229286	0.05062837	0.03420633	-0.22111279	-0.8503019	0.6835166	-0.0074454863	0.27734822	0.1571967	0.16150858
-0.89090014	-0.5586854	-0.24444877	0.9042826	-0.5715616	0.25876835	-0.32498538	-0.6420976	0.21925822	-0.85218585	0.27657714	-0.2234874	-0.67864364	0.24378924	0.12264396	0.92027396
0.017101994	0.07568561	0.07133979	-0.15832715	0.5082349	0.25495818	0.15109716	0.66475016	0.26395017	0.019932244	-0.2804861	0.2771138	-0.21615656	0.3940815	0.22014686	-0.009454372
1.0945392	1.3911891	-1.5018356	-0.9809751	1.4997631	0.5562666	-0.15910551	0.5273351	0.10291349	0.4220189	-1.6710513	1.400847	0.35762152	0.32094878	0.20223206	-0.78237367
0.14245613	0.20268236	-0.30479503	-0.26128137	0.5450079	0.18987451	-0.10697773	0.22244331	0.04185962	-0.025553005	-0.49354383	0.45700815	0.1627033	0.14856024	0.04833705	-0.050339513
1.2185475	1.0266713	0.2888454	-0.8295904	-0.9474864	-0.75960296	1.3924718	0.15816435	1.2019228	1.0325603	0.7459796	-0.50445455	-1.1902622	0.5122337	1.2198437	-0.9401343
-0.30825484	-0.48598188	0.21096349	0.22816591	-0.01454497	-0.09440382	-0.24154188	-0.029968413	-0.19563237	-0.21099842	0.26134056	-0.36916724	-0.038170032	-0.10052071	-0.14574072	0.3259
-0.29396534	-0.90829146	0.8036387	-0.2183303	0.3035164	-0.65440416	-0.24791633	0.34509838	-0.8007907	0.3108089	1.0436084	-1.013433	0.6146323	-0.7673221	-0.68092614	-0.05569613
0.31340432	0.25388548	-0.21193257	-0.42582822	0.22309642	-0.23398748	-0.019249696	-0.0113121215	-0.19027703	0.24601118	-0.20335662	0.19838546	0.24151683	-0.09999915	-0.07034571	-0.2812243
0.24437478	0.4414587	-0.4511044	-0.107373685	-0.22838615	-0.27810666	0.021925865	-0.40225086	0.13463534	0.07419092	-0.14049695	0.11493253	-0.008312239	0.037391063	0.21012701	-0.11261144
-0.073926106	-0.26866	0.15352736	-0.03246806	0.35754016	-0.019055873	-0.123836	0.3098096	-0.15752421	-0.04515456	-0.019720724	-0.097374424	0.059620302	0.0363715	-0.16412334	0.070555456
-1.03181	-1.3170905	0.8774299	0.48990065	0.56052035	-0.11590714	-1.0012355	0.3281146	-0.8629783	-0.41173244	0.88405687	-0.98178405	0.51430774	-0.6861034	-0.89187765	0.66850555
0.73131543	0.45473307	-0.23709708	-0.84541833	0.2769151	-0.5895851	-0.3770315	-0.80623245	-0.76817006	0.8126429	-0.19170414	-0.0737821	0.9141924	-1.0236707	-0.73411214	-0.8144401
-0.20870166	-0.028608678	-0.37613076	0.19443488	0.023743087	0.12824842	-0.22850658	-0.24887995	-0.0047499975	-0.33621988	-0.33193666	0.22653253	-0.10287401	0.07748107	0.025021724	0.27709407
0.04665398	0.23267423	-0.35176003	0.014671457	-0.016770987	-0.05583251	-0.073385045	-0.27409735	0.022847682	-0.07502697	-0.18190135	0.20798619	-0.0821488	0.06883544	0.11428922	0.097371675
0.25950614	0.13005932	-0.12334875	-0.38422453	0.31419787	-0.11321456	-0.034694176	0.13945523	-0.048744146	0.2265149	-0.23723991	0.048810747	0.22632436	0.0045495913	-0.027791582	-0.16673341
-0.7361946	0.04828755	-1.1631798	0.7914931	-0.6670109	0.13022289	-0.7137614	-0.9261134	0.5727592	-1.0021989	-0.6146613	0.27992967	-0.9484507	0.47603157	0.49768654	0.92085683
-0.5254957	-0.25437033	-0.34271148	0.5705743	-0.96669555	-0.25313696	-0.35804024	-1.0192167	0.1560456	-0.4996988	0.45994565	-0.4180871	-0.5840379	-0.12432265	0.08166858	0.5582446
0.9341562	1.2388668	-1.2593564	-0.73876065	1.3301687	0.587998	0.7583477	1.1494977	1.0240704	0.2144357	-1.5429753	1.2623608	-0.83479846	1.1475741	1.0724643	-0.52092415
0.3017483	-0.024980064	-0.014145202	-0.47190884	0.038645588	-0.44852814	-0.25272575	-0.5191121	-0.50990236	0.3564105	0.017217932	-0.16253603	0.52840126	-0.5933139	-0.4563739	-0.35538346
-1.3208414	-0.6105968	-1.0768013	1.225748	-0.90291506	0.6394076	-1.256949	-1.3842629	0.35428846	-1.3527108	-0.7215775	0.43132597	-0.9758779	0.39175653	0.19082782	1.3482312
0.5141605	0.32954395	0.045917943	-0.59015954	0.8451092	0.21518864	0.5743976	1.0649692	0.57077193	0.3516354	-0.3955781	0.33652025	-0.4980927	0.77761054	0.5163834	-0.36120847
0.36407056	0.20605199	-0.3384287	-0.5740072	0.61098814	-0.23048307	-0.5900883	-0.5121374	-0.7075237	0.22993594	-0.5160879	0.22519651	0.7399607	-0.6272383	-0.5657695	-0.26392218
-0.23677601	0.07651899	-0.4132916	0.22450133	0.45293474	0.3753934	-0.24496114	0.19472647	0.22556096	-0.45120415	-0.64168614	0.40205094	-0.3562342	0.46921006	0.23718765	0.4379584
0.032531068	-0.047104646	0.24482864	0.111529656	-0.57567924	-0.5104733	0.228506	-0.33080405	0.12846735	0.16075271	0.6365186	-0.58815753	-0.2958286	-0.1060488	0.1443375	0.07141196
-0.24461153	-0.14806062	-0.4032337	0.179275	-0.12895782	0.00856973	-0.5893404	-1.1107627	-0.507651	-0.3798961	-0.16844034	0.016208276	0.3411588	-0.67437845	-0.4363587	0.30776924
-0.7531502	-0.21004778	-0.7368818	0.83693707	-0.5472014	0.43240255	-0.6435821	-0.9298502	0.14411913	-0.8990289	-0.2977763	0.26823655	-0.56658536	0.14280294	0.076979965	0.846049
0.07908694	-0.8680913	0.9699595	-1.0367501	1.0623913	-0.5835736	-0.64644504	0.86146027	-1.1267301	0.9230974	0.4843721	-0.84393287	1.2482699	-0.88161945	-1.0934191	-0.6486927
0.25593367	0.13820653	-0.2567692	-0.41107246	0.4311079	-0.18925674	-0.5507408	-0.55153596	-0.6356015	0.18414654	-0.3903056	0.13681363	0.6537383	-0.6623704	-0.6055831	-0.23689258
-0.027713548	0.119725235	-0.31727803	0.2391055	-0.49428573	-0.18594164	0.113829195	-0.560956	0.2854074	-0.12489054	0.28456667	-0.052140158	-0.4375049	0.14268984	0.32644218	0.20687628
-0.21272627	0.05448072	-0.24516794	0.22174546	0.59926826	0.5187349	0.10235939	0.55695796	0.44327474	-0.44020477	-0.61900693	0.47514108	-0.5968811	0.6681043	0.3979288	0.36925355
0.39886257	0.4950528	-0.06922884	-0.10692769	-0.7992159	-0.47820935	0.58951277	-0.4344253	0.4242162	0.34447658	0.47447366	-0.3493031	-0.41966915	0.11020939	0.53976816	-0.2918353
-0.5685869	-0.55288535	-0.22504176	0.47510374	-0.38245845	0.084718384	-0.7083851	-0.9471915	-0.36589876	-0.50187933	0.15503624	-0.16024141	-0.11490759	-0.42840907	-0.28543848	0.5560808
-0.32503024	-0.13591297	-0.21873675	0.14281426	0.5868047	0.4704183	-0.38429925	0.1300334	-0.011178584	-0.5149241	-0.56236595	0.31929463	-0.059160843	0.16403025	-0.031574298	0.4020856
0.26960054	0.6220491	-0.6089942	-0.11690828	0.8238767	0.5141176	0.66993016	0.88980097	0.9763716	-0.254977	-0.85058814	0.7968558	-1.0910368	1.1113855	0.94614357	0.07176916
-0.112545766	-0.37689984	0.34370345	-0.20227551	0.5786922	-0.1348927	-0.4719296	0.20328262	-0.60268635	0.035445012	-0.06399623	-0.20382096	0.6297496	-0.4195519	-0.5991084	0.06365923
-0.043765504	-0.24749245	0.23167625	-0.13946156	0.63434654	0.106280304	-0.019750083	0.59207845	-0.056552403	0.024563966	-0.0069965296	-0.10177408	0.019531287	0.15916295	-0.060078856	0.074099876
-0.38736117	0.18562587	-0.599839	0.44709325	0.37822658	0.5547769	-0.20356336	0.25160608	0.49379689	-0.6581256	-0.6867799	0.57655716	-0.5282759	0.6272411	0.46228582	0.5981222
1.0430028	1.194637	-1.0950131	-0.8716707	0.76823205	0.41274005	0.945325	1.0906576	1.1084362	0.23493388	-0.92748326	0.91029346	-1.0401968	1.1481794	1.1207721	-0.5960865
-0.107611015	0.23366416	-0.36672187	0.2061117	-0.34938273	-0.0552605	0.22324397	-0.054846678	0.54248077	-0.22601104	0.0083247665	0.057508364	-0.73301005	0.5182463	0.5297475	0.2777725
-0.107771896	0.18624264	-0.28345442	0.29671818	-0.32132974	0.10280755	0.29749966	0.12373816	0.5614123	-0.23571552	0.087398395	0.1135708	-0.7357895	0.47465527	0.5131966	0.26985985
0.41558278	0.09965815	0.12741737	-0.40744507	-0.02372039	-0.45817664	0.13446741	-0.05804066	-0.09601253	0.43121353	0.25562334	-0.20125063	0.18813859	-0.14271754	-0.04714203	-0.48332262
-0.5378428	0.14594832	-0.87905335	0.7611422	-0.42943987	0.57769716	-0.061121807	-0.12766804	0.77248305	-0.8030087	-0.4545007	0.5193135	-1.1530249	0.7186159	0.7534509	0.6797902
0.77599454	0.94104713	-1.1851566	-0.7406334	1.2028244	0.5380306	0.78707254	1.0669891	1.0014684	-0.050731484	-1.2146546	1.0523056	-1.0076101	1.0550584	0.99952453	-0.396123
0.101067685	-0.09622658	0.20996118	-0.3308942	1.1026506	0.34114406	0.24222903	0.96718174	0.17885035	0.15135415	-0.3477592	0.1779632	-0.23661137	0.5373396	0.22287491	-0.092618465
-0.74294925	-0.31235632	-0.20189345	0.5818706	-0.1617211	0.3290282	-0.57000273	-0.6097371	-0.054638807	-0.6534008	-0.045651898	-0.010582309	-0.2714402	0.110399365	-0.08954417	0.65484345
0.47850636	0.5655023	0.0049973116	-0.06292437	-0.8825394	-0.48752213	0.8260976	-0.13851425	0.66049343	0.34966877	0.6222093	-0.32200605	-0.67264396	0.30172145	0.717152	-0.38558593
0.17057852	-0.02305117	0.23600775	-0.15943852	-0.35074496	-0.54088575	0.12593251	-0.36028305	-0.12798192	0.3308996	0.45795715	-0.45528302	0.1882087	-0.36824155	-0.1366611	-0.20662737
-1.096906	-0.57434285	-0.408986	0.96289784	-0.45333293	0.531113	-0.6243487	-0.6815401	0.172555	-1.0203984	-0.10175565	0.043785255	-0.7747948	0.30118832	0.12026873	1.0308876
-0.33651766	-0.51125896	0.40123942	-0.044680376	0.88145936	0.08125728	-0.26193592	0.61690444	-0.22608936	-0.09983641	-0.02335521	-0.19598438	0.158499	0.0554166	-0.24449399	0.23398474
0.7157674	0.67138565	-0.39383677	-0.7544513	0.2952501	-0.1342535	0.21719207	0.27840635	0.105962686	0.5830553	-0.3559599	0.3579324	0.13991557	0.117387876	0.24287233	-0.61828715
-0.001460149	-0.061960496	0.19853632	0.003384525	0.2502934	0.07667125	0.22728767	0.51052666	0.1809925	0.018803144	0.055128954	-0.019476606	-0.21999352	0.37172928	0.22077537	0.06768488
0.19763291	0.008475841	-0.14095207	-0.4351938	0.45710504	-0.22910303	-0.57553846	-0.33784574	-0.7037762	0.26180068	-0.30866072	0.022821704	0.75094503	-0.5652506	-0.5709537	-0.24682866
-0.008149728	-0.6233043	0.3858136	-0.77228385	1.3962743	-0.23856848	-1.3120847	0.008556064	-1.4406956	0.6420966	-0.36526102	-0.34852424	1.4193702	-1.38591	-1.4267904	-0.3995816
-0.6007174	-0.39394155	-0.23062092	0.27598095	0.23342273	0.23183288	-0.79523623	-0.52290875	-0.5250445	-0.59985155	-0.38257074	0.106056996	0.19870591	-0.2996359	-0.4110616	0.56556636
0.085952915	-0.101977274	0.15352921	-0.18781984	0.1817623	-0.13916305	0.045289688	0.32889616	-0.06575948	0.097819224	0.083244026	-0.10118659	0.04305262	0.07536345	-0.06285781	-0.03950314
-0.05664955	-0.03133802	-0.20271584	0.025788246	0.14677963	-0.042436097	-0.30134812	-0.30972058	-0.2796277	-0.11009466	-0.21342626	0.086209595	0.24015307	-0.26690286	-0.2594145	0.079749696
0.4216408	0.4823733	-0.28305012	-0.4520223	-0.20000544	-0.56718796	-0.15223145	-0.6985698	-0.33099142	0.42857492	0.09189903	-0.1945855	0.49696568	-0.573548	-0.3157452	-0.3546653
-0.37704712	0.0148687735	-0.39849025	0.31359568	0.18691474	0.32876247	-0.12170434	0.10935038	0.3820133	-0.5249704	-0.3907338	0.34205073	-0.47584933	0.43755344	0.29974926	0.46214506
-1.187069	-0.3089864	-0.8680371	1.1956413	-0.818246	0.66282946	-0.9603942	-1.2331374	0.42351052	-1.3043718	-0.5924094	0.44171184	-0.9797033	0.5378199	0.38008088	1.1875397
0.27242216	0.3229138	-0.16985297	-0.17941993	0.19543462	0.10118511	0.43733254	0.47227168	0.48552266	0.12478803	-0.14250077	0.24025011	-0.40674588	0.52940685	0.4807141	-0.102876425
0.52107596	0.055549446	0.04357797	-0.699521	0.5276858	-0.2790399	-0.26738763	0.08701197	-0.47200146	0.55116755	-0.28306392	0.00035845808	0.6826027	-0.37345827	-0.45124108	-0.56514186
0.147077	0.11622723	-0.46319076	-0.32795545	0.3820401	-0.11888673	-0.66703594	-0.6062085	-0.7042434	0.07569019	-0.55731463	0.28909248	0.73680174	-0.59057677	-0.65568846	-0.1726434
-0.08752766	0.15130782	-0.14642657	0.20143291	-0.7342282	-0.38973337	0.06639344	-0.9054075	0.18152045	-0.03269296	0.4639685	-0.45138335	-0.24074057	-0.23213242	0.1452804	0.09868478
-0.10192037	-0.07035239	0.0021625909	-0.17768979	0.93556285	0.34611106	-0.27151287	0.6239317	-0.105849914	-0.057046294	-0.49680245	0.23277432	0.14700203	0.28147575	-0.06062526	0.111434385
-0.52604306	0.2374366	-0.8688325	0.61966276	0.23378752	0.77654403	-0.18398906	0.12070487	0.7349329	-0.86495215	-0.91853887	0.72229195	-0.9630999	0.8037709	0.6188077	0.756378
0.102453046	0.24111389	-0.56557626	-0.24846083	0.3316314	-0.14821532	-0.7474337	-0.74576604	-0.66335845	-0.001974142	-0.6298054	0.29381627	0.6387615	-0.65883803	-0.5750995	-0.065857284
-0.10884186	-0.25031564	0.104870975	0.00030523763	-0.12170124	-0.32609296	-0.32805634	-0.6065103	-0.3599183	-0.008631768	0.23350644	-0.42737705	0.28584215	-0.57280356	-0.35763106	0.10214261
0.71192	0.37519792	-0.17802073	-0.75767624	0.29542974	-0.43833953	-0.30603948	-0.46074012	-0.5869626	0.6688461	-0.20897454	0.040234514	0.80178076	-0.6782874	-0.5595309	-0.7693583
0.097365074	-0.3630172	0.513296	-0.19919161	-0.14672695	-0.43171364	0.09591721	0.03903397	-0.24870135	0.27780098	0.6660254	-0.6578352	0.23587124	-0.39765316	-0.2912627	-0.21172668
1.1959735	1.3986386	-1.3803275	-1.116193	1.580699	0.86395293	1.1708534	1.3474747	1.3505914	0.49722338	-1.5503122	1.3412353	-1.2616662	1.3153905	1.3371164	-0.87771374
1.0161941	1.1718898	-1.0355619	-0.98261684	0.6869751	-0.1389404	-0.44027165	-0.38646802	-0.516786	0.7753726	-1.0010322	0.81370044	0.7635848	-0.4245677	-0.32082567	-1.0046198
0.31780183	0.057119094	0.15950999	-0.46747062	0.70564765	0.18820165	0.21355417	0.821021	0.17409225	0.34082675	-0.29807582	0.22283936	0.041777115	0.3601565	0.08678358	-0.238821
-0.023099221	0.21604332	-0.38405904	0.23486519	-0.5688563	-0.25983492	0.082127586	-0.49842328	0.2486313	-0.137368	0.2520449	-0.15311146	-0.329115	0.0016193477	0.34938082	0.19037487
0.51280534	0.5151258	-0.5192938	-0.69625413	0.5826739	-0.17348455	-0.6911019	-0.6532451	-0.686014	0.39536053	-0.69942105	0.38313422	0.8314954	-0.7246546	-0.6781533	-0.51829827
0.54959154	0.22038919	-0.0103285955	-0.6068301	0.24283615	-0.47890145	-0.17626776	-0.09028242	-0.31600475	0.5165234	-0.0028513584	-0.13607891	0.4855799	-0.32068232	-0.2824026	-0.511229
0.040673576	1.101886	-1.7469808	-0.1884855	0.369777	0.3142745	-1.3054442	-1.6111606	-0.6647384	-0.29929164	-1.6335554	1.560897	0.5979563	-0.69329035	-0.5698988	0.08974352
0.35991848	0.3193914	-0.32937992	-0.39313585	0.06720279	-0.24290578	-0.19802108	-0.4096454	-0.40645075	0.30694795	-0.16242737	0.076806284	0.50260985	-0.37240177	-0.2567522	-0.35988292
-0.6964006	-0.7027746	0.45889685	0.33651865	0.5896926	0.22941808	-0.52627975	0.32315096	-0.4166922	-0.44570592	0.24389409	-0.41600198	0.14277677	-0.09088327	-0.39254165	0.5397739
0.3127787	0.14077097	-0.40364075	-0.6619951	0.8724221	-0.18001916	-0.9829203	-0.7675721	-1.0571302	0.3454855	-0.73808134	0.37556648	1.0217688	-0.97037226	-1.0199612	-0.45700318
-0.7489033	-1.1002945	1.0618325	0.03474186	0.7400437	-0.5904371	-0.6428711	0.9464925	-0.9153488	0.11676393	1.1393715	-1.1436888	0.8785832	-0.87517744	-0.8905508	0.3053779
0.5391898	0.30420887	-0.16195981	-0.5522645	0.24179935	-0.22132497	0.010457811	-0.06730632	-0.17448567	0.4880287	-0.16805658	0.15642458	0.4081165	-0.1779379	-0.109640226	-0.55631673
0.5494716	0.8176238	-0.8119832	-0.60117775	0.48591924	0.027228342	-0.32553932	-0.20171806	-0.21129705	0.22837828	-0.8443386	0.7348891	0.47326788	-0.16025768	-0.13775434	-0.44059533
-0.2695259	0.045186646	-0.91772693	0.07598599	0.25903037	0.13499153	-1.3260684	-1.3821453	-0.7436928	-0.4366334	-0.98104876	0.69240284	0.5990787	-0.74168843	-0.6925948	0.23907925
0.7151259	0.9393051	-0.85036176	-0.40332454	1.124732	0.7702894	0.9488799	1.3078063	1.13374	0.0010394776	-1.1153365	1.0858078	-1.1357846	1.213949	1.1381038	-0.21275306
-1.1875042	-0.43911475	-1.2213246	1.203859	-1.1132877	0.72184885	-0.92222923	-1.3276966	0.7751475	-1.3459496	-0.6386064	0.5493304	-1.262658	0.64544517	0.5301164	1.24162
-0.031200863	0.082591936	-0.14303082	0.29928258	-0.45451745	-0.11588806	0.35702577	-0.03483446	0.48285848	-0.07270034	0.27182704	-0.07961664	-0.7409808	0.37033007	0.48656327	0.14891492
0.11981358	-0.35248876	0.5432295	-0.6589029	0.8235651	-0.0691389	0.015613013	0.9139842	-0.18448079	0.51092297	0.08715959	-0.19962579	0.34826753	0.13401528	-0.22405559	-0.40219003
-0.6356499	-0.1155186	-0.51346	0.5552106	0.11337916	0.40575773	-0.5651651	-0.31617516	0.20156088	-0.73221564	-0.68751997	0.317626	-0.48399508	0.28874484	0.101406105	0.65880555
0.08536258	0.05161166	-0.099956416	-0.13169797	0.1976255	-0.07513723	-0.19991529	-0.021745715	-0.16614817	0.03630208	-0.14558487	0.05372278	0.23607521	-0.07591847	-0.13450505	-0.08623746
-0.03676798	0.37051845	-0.62244457	0.12756118	0.6391764	0.60321283	0.36471015	0.64995754	0.8159893	-0.5424637	-0.69725513	0.6651078	-1.0348631	0.9119252	0.6843825	0.33292803
-0.0926245	0.5212304	-0.7883807	0.1775832	-0.19870374	0.057045273	-0.18425304	-0.52170897	0.23332961	-0.27943373	-0.42378667	0.34206384	-0.19350415	0.14122337	0.22112556	0.27750325
0.3250946	-0.16825317	0.47253224	-0.54967797	0.33433208	-0.15904136	0.2826345	0.75585175	0.07787814	0.58157164	0.14108673	-0.13812916	0.072635755	0.16141658	0.016065238	-0.4182771
-0.10139784	0.09860612	-0.48839605	0.27373183	0.1396584	0.34796023	0.28301108	0.397067	0.601452	-0.50882554	-0.31315958	0.29060113	-0.88395095	0.58548397	0.5818098	0.3292113
-0.21313019	-0.30381292	0.14917886	0.18247461	-0.23248455	-0.22207609	-0.16177367	-0.36275086	-0.11875875	-0.14145505	0.3840179	-0.36809605	-0.08014491	-0.18111172	-0.13533938	0.19947773
-0.088525854	0.1582123	-0.3353882	-0.07540126	0.39111465	0.18752678	-0.27517846	-0.04347193	-0.058523968	-0.2021793	-0.4918963	0.32158267	0.16589059	0.055798076	-0.048684366	0.11627986
-0.50967425	-0.0931454	-0.6416618	0.5137804	0.09239169	0.55911374	-0.39001134	-0.12673168	0.32780203	-0.68729526	-0.6602842	0.47921672	-0.5005365	0.45154044	0.29157755	0.6125398
-0.04788872	-0.30290875	0.5588952	-0.19960697	0.8276751	0.16945387	0.17357539	0.9972151	0.024788952	0.22275868	0.091172755	-0.13392268	-0.03391204	0.36996943	-0.030850803	-0.04186117
0.4629543	0.7381077	-0.46702543	-0.38545975	0.22369371	0.08966979	0.56208676	0.44342566	0.6119284	0.16080834	-0.36907294	0.5566198	-0.43526337	0.57679963	0.63902	-0.3174618
0.93005025	0.9106594	-0.99236923	-0.98709774	1.020227	-0.15244806	-0.9073579	-0.8155394	-1.0161657	0.7993556	-1.1221311	0.959763	1.1133701	-0.9618576	-0.9956932	-1.0085981
-0.27839482	-0.29896724	-0.076454036	0.1714121	-0.04139606	-0.022927826	-0.39247113	-0.44982964	-0.27786386	-0.31277415	0.01964488	-0.13039722	0.10823326	-0.27868196	-0.27738807	0.33341596
-0.10482755	0.085640036	-0.34737518	0.13513796	-0.10720014	-0.03062771	-0.3406044	-0.79001915	-0.22650023	-0.24792726	-0.26201576	0.17893592	0.120264105	-0.36277443	-0.23586477	0.14428973
0.23530155	0.2515053	-0.1317364	-0.18290842	-0.13708685	-0.22394033	0.2516101	-0.060477678	0.19755292	0.096171826	0.085006826	-0.0046722386	-0.09358558	0.05780944	0.23923387	-0.13576701
-0.86498165	-0.72348195	-0.024004795	0.67911136	0.10359137	0.38016212	-0.96844965	-0.5083876	-0.45092237	-0.67969114	-0.019442394	-0.2031434	0.034616016	-0.38309968	-0.56287456	0.7025111
0.24706033	0.16461082	0.0014833548	-0.32122242	0.5101121	0.15360563	0.37623388	0.6497646	0.2937977	0.20162305	-0.25053635	0.20841897	-0.33325964	0.5021114	0.3627652	-0.19949132
0.063457	-0.06564292	0.06412173	-0.2211232	0.15624225	-0.27384704	-0.12262	0.016406506	-0.13313827	0.15184496	0.08295137	-0.15227509	0.16959551	-0.105692916	-0.0742387	0.024214845
0.24534792	0.28207508	-0.11177775	-0.2553241	0.24076526	0.09926697	0.20913269	0.33935916	0.29795647	0.15906665	-0.2929958	0.27906948	-0.15160793	0.3603418	0.21976952	-0.2235432
0.06994107	0.087253906	-0.07684321	-0.16107817	0.48039955	0.15298276	0.09018057	0.42947373	0.18853077	-0.020385852	-0.33334318	0.25401452	-0.15315582	0.40302205	0.180642	-0.032732636
0.6810273	0.64622086	-0.35766166	-0.6423663	0.17484802	-0.32668892	-0.07501001	-0.43914667	-0.40789112	0.5628059	-0.28480008	0.22840628	0.52552795	-0.4356991	-0.20166805	-0.57682717
-0.055524923	0.081164554	-0.17250809	0.11505756	-0.07275858	0.10170754	-0.009347579	-0.1007969	0.14266664	-0.14910766	-0.07961346	0.15606523	-0.153057	0.1538601	0.16163923	0.19358906
-0.21428025	0.045326527	-0.1929573	0.25172222	-0.1320087	0.039118335	-0.075572096	-0.044701945	0.31903544	-0.27427402	-0.10616239	-0.018073158	-0.41875044	0.21733849	0.29150444	0.33423558
0.48778942	0.3382213	-0.18965183	-0.44932523	-0.054265898	-0.42622364	0.10397421	-0.233359	-0.012894246	0.34721148	-0.08322166	0.0029031052	0.18970858	-0.11553627	0.073454656	-0.45576456
-0.29533842	-0.24026886	-0.105467975	0.055853114	0.32347062	0.09564254	-0.47251853	-0.20645837	-0.3711263	-0.27998465	-0.27049762	0.008882218	0.28315857	-0.20379399	-0.41427866	0.16589437
-0.94018185	-0.6616613	-0.18150511	0.7778256	-0.1910571	0.55536944	-0.6502414	-0.36924157	0.026703682	-0.78998893	-0.011992697	-0.04831227	-0.44404927	0.16096184	-0.02569787	0.862294
-0.0799521	-0.5992043	0.6372543	0.117997706	-0.4884169	-0.6344699	0.14436187	-0.15282296	-0.2520361	0.23033305	1.0394562	-0.9430272	0.018887017	-0.49481273	-0.28116688	-0.056923684
-0.2597789	-0.046851613	-0.108118564	0.20180067	0.3182771	0.28743395	0.098322116	0.4228835	0.32593074	-0.33728313	-0.22231378	0.18569404	-0.41012985	0.43334198	0.2443358	0.3321371
0.9715274	1.1958015	-1.1389498	-0.6167216	1.3570932	0.89222646	1.1789868	1.2839425	1.2461189	0.17642915	-1.3902252	1.276591	-1.2842656	1.3060331	1.3073322	-0.5800337
0.081387356	-0.0215462	0.1115225	-0.25795186	1.1615092	0.4111119	0.22795184	0.9507279	0.29372168	0.120934114	-0.44524345	0.24373943	-0.21118473	0.5173939	0.18996097	-0.046223987
-0.40802997	-0.3676934	0.09534042	0.3499397	-0.036192264	0.007394205	-0.23133713	-0.17824444	-0.12538362	-0.3647763	0.19343306	-0.25446597	-0.14602228	-0.054941837	-0.107816055	0.36141077
0.20776753	-0.07167138	0.1470382	-0.26973823	0.29533592	-0.14964192	0.0296778	0.15641128	-0.15938841	0.22303204	-0.09069043	-0.0010160968	0.20141107	-0.079028994	-0.07866742	-0.18324381
0.27514476	0.21026818	-0.06702741	-0.28456134	0.099479064	-0.23889187	0.038557764	-0.067232296	-0.08122264	0.22421335	0.0054473365	0.027722921	0.14863685	-0.024093844	-0.048190955	-0.26673412
0.015442798	-0.14424625	0.3224175	-0.041831627	0.018527295	-0.19858186	0.3483214	0.42605957	0.23223212	0.11279916	0.2940511	-0.26105192	-0.2868593	0.2979711	0.14284459	-0.038192973
0.14927523	0.08969965	-0.12870005	-0.3160055	0.5486758	0.094270036	-0.35032547	0.11509635	-0.29155853	0.1099805	-0.4330553	0.32202756	0.39524335	-0.09170127	-0.24145642	-0.15528758
0.3579772	0.26976126	-0.20233698	-0.37992293	0.5699208	0.12670662	0.50435495	0.6898525	0.4658902	0.12048023	-0.45217273	0.34596038	-0.5394077	0.63989633	0.51534426	-0.15225878
-0.53072655	0.102716886	-0.6307904	0.6047561	-0.4368774	0.45684886	-0.048163872	-0.3147444	0.6458958	-0.6088224	-0.2823457	0.3352221	-0.8525649	0.6599216	0.5401519	0.5794187
0.4517165	0.12497368	-0.23828408	-0.8098281	0.8676032	-0.34871107	-0.8232616	-0.6389721	-1.0245702	0.7927857	-0.47992364	0.16553313	1.0303355	-1.0081592	-0.92020774	-0.7306063
0.2923055	0.5102935	-0.45989922	-0.32608977	1.0698136	0.6442762	0.5660983	1.009059	0.72431195	-0.022773447	-0.8275208	0.64863205	-0.7411711	0.9157137	0.6614851	-0.0824855
0.65673774	0.9172596	-0.055691194	-0.30356273	-0.52739894	-0.4615466	0.9613441	0.31928602	0.8454717	0.4716991	0.4359993	-0.24775565	-0.7493778	0.41363925	0.86028457	-0.37825173
-0.1878251	0.035458878	-0.072527975	0.19660357	-0.2585234	-0.08102785	0.12361361	-0.080117695	0.28074318	-0.2444579	0.16319388	-0.16854443	-0.46562755	0.23059233	0.24886565	0.30809113
0.13779248	0.30042353	-0.29393047	0.019903366	-0.22830766	-0.04701434	0.23990487	-0.033584442	0.24583498	-0.029445773	0.015475605	0.087989494	-0.28229204	0.282661	0.38443094	-0.048242062
-0.6468239	-0.06435822	-0.65996206	0.7447448	-0.8072402	0.27723968	-0.06805052	-0.64025974	0.6317225	-0.7849261	0.0061019883	0.10789742	-1.0048301	0.4320171	0.55928653	0.7668865
1.2640301	1.0603443	0.57046056	-0.9760612	-1.1860588	-1.184295	1.0630262	-0.6958918	0.56716937	1.2815701	1.1016073	-1.007076	-0.24821249	-0.31165203	0.6531331	-1.1694999
0.27610213	-0.27332646	0.32965666	-0.54560024	0.5277776	-0.46932846	-0.35469493	0.18588433	-0.56075996	0.49586916	0.11204345	-0.35076013	0.73433936	-0.48612818	-0.5407308	-0.367412
0.34739497	0.31734145	-0.23108572	-0.2657659	-0.16876233	-0.38899684	0.0787045	-0.6477279	-0.14029652	0.2935417	-0.0034975947	-0.09340199	0.13655345	-0.2971953	-0.0075718793	-0.30321288
0.57323843	0.7669925	-0.9211418	-0.79121846	1.0606884	0.33406147	-0.6057912	0.027021343	-0.36486033	0.23837169	-1.1042082	0.906012	0.70598876	-0.12709756	-0.30500185	-0.59690356
-0.3188629	-0.10552452	-0.25225717	0.47488552	-0.41661108	0.08314779	0.008599633	-0.28031406	0.3088655	-0.3614373	0.09783727	0.029971922	-0.55432236	0.26211864	0.2787942	0.3891052
-0.6553316	-0.72635853	0.46261385	0.19255725	0.51675767	-0.11006782	-0.7485161	0.11200609	-0.6904217	-0.345398	0.5141566	-0.556828	0.3979045	-0.5539081	-0.6009428	0.43578917
0.2596338	0.74695694	-0.82956403	-0.071277395	0.61747414	0.67335135	0.5320232	0.6503404	0.8886098	-0.26299003	-1.065115	0.87606657	-0.9526128	0.9200399	0.87790877	0.106160305
-0.3779749	-0.5661825	0.5892281	0.15945968	0.4397488	-0.045934014	-0.16640218	0.62743884	-0.22383302	0.0044295792	0.37803134	-0.47971278	0.14082144	-0.011672612	-0.32345745	0.23120388
-0.13517189	-0.012296093	-0.22244352	0.0069955783	0.49869648	0.27366394	-0.40389505	0.03305458	-0.18352258	-0.19875889	-0.46668983	0.27148548	0.15909949	-0.017071716	-0.12470036	0.17682733
0.21856561	-0.22772345	0.46262935	-0.13063188	-0.536785	-0.58143365	0.35338566	-0.27255002	-0.106548764	0.37214252	0.752635	-0.7516249	0.04558268	-0.31624633	-0.07929207	-0.2789107
0.7105723	0.4939615	-0.1430183	-0.7213893	0.029967804	-0.49009538	-0.19656907	-0.64689213	-0.5130657	0.6344184	-0.11730231	-0.020654252	0.69585466	-0.64289516	-0.40196916	-0.72562927
0.098901704	0.27956024	-0.6354205	-0.36115447	0.70639277	0.14418472	-0.75642395	-0.45147032	-0.5557341	-0.07375623	-0.91101414	0.67159706	0.59433407	-0.3293765	-0.4336431	0.00724563
-0.24931735	0.18972188	-0.5194814	0.2738079	-0.28587824	0.056148913	-0.12717749	-0.522138	0.24524675	-0.41357574	-0.184686	0.10375344	-0.33343497	0.19693363	0.31589836	0.33493555
0.33987916	0.034292743	0.27642676	-0.3511838	-0.30963597	-0.5504518	0.19981058	-0.42655867	-0.21445766	0.4615831	0.45778477	-0.50701386	0.31211203	-0.44249988	-0.17115636	-0.36692727
-0.37900716	-0.7391268	0.60693586	-0.010545712	0.7693867	0.059560027	-0.42202058	0.568451	-0.46446973	-0.04283706	0.42504323	-0.57067245	0.30100027	-0.1314534	-0.4018752	0.23967826
0.16757439	0.05692157	-0.023533104	-0.21559457	0.2992172	0.027203172	-0.0028483314	0.2173784	0.040768504	0.10377136	-0.17476474	0.14399366	0.055741623	0.17693107	0.1172987	-0.08656002
-0.75636905	-0.60841346	-0.29887974	0.7404581	-0.5464963	0.13595256	-0.68323094	-0.8229425	0.020945983	-0.67860043	0.08744406	-0.21877436	-0.45328403	-0.003140387	-0.030347329	0.7566847
0.986252	0.8757438	-0.5214296	-0.82816464	0.2928035	-0.32499498	0.023749182	-0.08898228	-0.15354714	0.7505556	-0.39904487	0.3985931	0.46631595	-0.10576977	-0.03958461	-0.8112006
0.9689357	1.0392994	-1.1008177	-1.0152043	1.2832521	0.06670324	-1.2736595	-1.1291572	-1.2459239	0.9550304	-1.3246138	1.318046	1.2773697	-1.2080548	-1.2916151	-1.1051731
-0.85453063	-0.707711	0.47546744	0.2887879	0.507905	-0.024915447	-0.876137	0.35750082	-0.5474337	-0.34675324	0.46408126	-0.4750933	0.42677405	-0.35336852	-0.5274024	0.51574004
0.5408969	0.34686014	-0.3144763	-0.75002766	1.2108552	0.08947669	0.40175104	1.025113	0.439341	0.39443246	-0.69169384	0.43194228	-0.44488093	0.7115243	0.49462342	-0.3700624
-0.2446975	-0.14272577	-0.087191015	0.274772	-0.11523731	0.007869598	-0.18838875	-0.28082174	0.022132369	-0.25864446	0.03097566	-0.059976872	-0.07011133	-0.013609636	-0.023069657	0.29138795
-0.12224653	-0.3182388	0.08842004	0.018810453	-0.16343476	-0.29301512	-0.35634395	-0.7349411	-0.49885076	0.0342144	0.23636878	-0.41213852	0.34842768	-0.65616	-0.43245453	0.114450745
-0.5841141	-0.67167014	0.34083828	0.38815907	0.25656876	0.07969408	-0.6478454	0.010222271	-0.4590144	-0.30927977	0.38467222	-0.48579475	0.06818124	-0.26970342	-0.4533459	0.48481074
-0.01792739	-0.16302256	0.20723845	0.023442894	-0.09635737	-0.21350074	0.19742773	0.23047315	0.14251795	0.03539169	0.32519037	-0.24985267	-0.32807672	0.24223924	0.18357676	0.044892684
-0.1897206	-0.0073325094	-0.29654622	0.11400614	0.1629818	0.1592839	-0.26221162	-0.07346856	0.01089673	-0.26948604	-0.3684965	0.24600506	-0.064995304	0.124319606	-0.0070116394	0.29200375
0.10988884	0.16454911	-0.1533535	0.04461298	-0.4343154	-0.3009917	0.07755549	-0.46321657	0.050512057	0.03475176	0.16329655	-0.19965181	-0.11396844	-0.09977607	0.06879862	-0.05476483
-0.8784053	-0.44915962	-0.6947121	0.72979474	-0.36304733	0.20114617	-0.8664631	-0.84826756	0.12699811	-0.9063089	-0.4756259	0.03880521	-0.5065313	0.11106772	-0.10992189	0.94002473
-0.12911287	-0.4096092	0.4779487	0.14888099	-0.32374972	-0.41446698	0.21013358	0.022139164	0.07289264	0.11737413	0.7812834	-0.7281309	-0.31489763	-0.059612446	0.037242446	0.112021
-0.3591154	-0.49246648	0.4233898	0.15488261	0.33093342	-0.006091484	-0.19707388	0.4424108	-0.16920339	-0.08808613	0.23597938	-0.3171138	0.058296766	0.011739914	-0.2454075	0.24655008
0.2627559	0.26395327	-0.27580407	-0.27934667	0.062945716	-0.17913088	-0.033575438	-0.21287607	-0.16197017	0.20009317	-0.16266756	0.11390339	0.27879214	-0.11402302	-0.06763139	-0.25501022
-0.66866267	-1.0069823	1.041735	0.00391373	0.6681721	-0.5597363	-0.5224009	0.8641587	-0.8554025	0.32036403	1.0846767	-1.1030806	0.9568962	-0.80024064	-0.87147	0.14640434
-0.8645296	-0.31229046	-1.0107327	0.8915827	-0.6210068	0.372808	-0.71327794	-0.98182666	0.3841829	-1.0227977	-0.5435233	0.3658736	-0.9103276	0.26216418	0.22414613	0.92404544
0.45959213	0.06594461	0.09782098	-0.5593643	0.19075282	-0.32872075	-0.10510481	-0.07845935	-0.35245943	0.5272229	0.008735584	-0.055007324	0.48874784	-0.31366727	-0.26898986	-0.5460177
-0.89168435	-1.0516329	0.7906904	0.1926933	1.0438894	-0.0623116	-0.8564234	0.79512566	-0.7065969	-0.21024449	0.74539816	-0.81705576	0.65580493	-0.48700127	-0.83362544	0.5108844
-0.15277262	0.05390278	-0.31032118	0.14248295	-0.0388948	0.15880299	-0.15995257	-0.10434517	0.083219	-0.29968157	-0.32264218	0.16220015	-0.22628118	0.18035758	0.12578304	0.24319431
-0.057726867	0.1542726	-0.43793136	0.07029582	-0.21747106	-0.11010706	-0.13188112	-0.3938469	0.03666041	-0.16071343	-0.13885663	0.07676924	-0.05345126	0.045116846	0.12967683	0.16769157
-1.2560277	-0.9588036	-0.9045344	1.2364793	-0.90091103	0.66530055	-1.1150807	-1.330428	0.29004213	-1.3321099	-0.3984633	0.21870528	-0.9562843	0.24383369	0.06056828	1.2324817
0.20362163	0.4042694	-0.5969617	-0.20141256	0.1971362	0.17919861	-0.16209334	-0.10827071	-0.051940624	0.016026514	-0.50712764	0.42979538	0.1444872	0.04353629	-0.05585662	-0.10669562
0.110398844	-0.009251778	0.29450992	-0.1518499	0.2365988	0.061347283	0.3821255	0.6801832	0.33180553	0.13355933	0.0882628	-0.06406956	-0.4101762	0.45324445	0.3232953	-0.035115596
-0.23034412	-0.20892984	0.083079316	0.17702907	-0.11825768	-0.027358659	0.0034746763	-0.048184004	0.06329984	-0.20541303	0.18743928	-0.12689634	-0.21803693	0.0495542	0.022752685	0.22378194
-0.41132182	-0.15012275	-0.2704945	0.49336752	-0.5423106	-0.07227338	-0.11484184	-0.6167912	0.20900846	-0.375392	0.24574879	-0.20787263	-0.43940392	-0.010922183	0.1255861	0.41174445
-0.47086358	0.27113935	-1.1639363	0.5811126	-0.15168989	0.49508604	-0.27146745	-0.2766274	0.81215453	-0.7417947	-0.9630583	0.8247044	-1.0358027	0.7732537	0.6767704	0.680484
0.049278837	0.03217265	-0.024767796	-0.017239569	-0.28306225	-0.21646702	0.10757205	-0.3045037	0.07548951	0.036070123	0.22996156	-0.14527117	-0.13412365	-0.09193199	0.07197797	-0.0014531197
0.7447095	0.8728101	-0.9835529	-0.6500416	1.0548114	0.5633223	0.76397115	0.95132864	0.9647444	0.09261606	-1.0916933	0.96819353	-0.9527558	1.056402	0.9829876	-0.30589688
0.06484432	-0.5086036	0.705661	-0.3335169	-0.024423601	-0.71247655	-0.039551917	0.13194364	-0.5487269	0.50434816	0.79948664	-0.89109194	0.5095434	-0.72029614	-0.4471581	-0.2681191
-0.22128786	-0.1852736	-0.011415256	0.15229611	0.14037937	0.019577114	-0.2614028	-0.15223385	-0.21780932	-0.17552462	-0.038503386	-0.036899053	0.14146663	-0.16338697	-0.27415213	0.20586692
-0.39235374	-0.6240769	0.38219836	-0.07494627	0.61326885	-0.11275612	-0.6748862	0.07894937	-0.7733187	-0.027369639	0.1645909	-0.44180357	0.6654975	-0.7162123	-0.7192975	0.19514735
0.9106227	0.47860885	0.46600437	-0.7239404	-0.98951906	-0.83773625	0.8406388	-0.45188242	0.4336708	0.8996607	0.88574016	-0.7964724	-0.31450364	-0.2354141	0.488831	-0.8182614
-0.307497	0.1321446	-0.4105571	0.2853718	-0.17169026	0.15449867	-0.1752384	-0.27394557	0.19619933	-0.32433313	-0.124238186	0.12946083	-0.3185179	0.2123096	0.18763876	0.3516854
-0.023679627	0.15824507	-0.23258293	0.05371805	-0.023798807	0.095469475	0.24213669	0.095264025	0.39218527	-0.13141094	-0.16427997	0.1391312	-0.41595381	0.3323007	0.32124645	0.1431721
-0.20449533	-0.12358339	-0.00032609835	0.16054812	0.026388215	-0.005609566	0.037189752	0.20107262	0.15993266	-0.14135922	0.06315981	-0.056105696	-0.17355745	0.16561605	0.14560534	0.14768162
-0.7514519	-0.734865	0.15863872	0.4218709	0.18922938	0.09284198	-0.7320135	-0.105116144	-0.3440558	-0.44824618	0.22395615	-0.31448734	0.011297834	-0.1351393	-0.39203933	0.56708884
-0.20731711	0.44941995	-0.7169303	0.39323172	-0.29561102	0.27361062	-0.055025067	-0.5075017	0.47442022	-0.52993906	-0.44661105	0.5126535	-0.4890268	0.43726146	0.4336999	0.42335305
-0.48005915	-0.81914586	0.78341144	0.4189458	-0.14269932	-0.31639948	-0.008847775	0.202778	-0.3289748	0.02620638	0.91494876	-0.8493133	0.027787166	-0.33846465	-0.42848346	0.22156373
0.28461134	0.15034726	-0.12184959	-0.41707256	0.36282593	0.005022833	-0.099535845	0.22176707	-0.10822409	0.2245492	-0.29088452	0.23244765	0.3139139	-0.040239647	-0.114181764	-0.27265987
-0.12770793	-0.04908648	-0.059973672	0.1359545	0.4540849	0.2458918	0.16295789	0.56936365	0.3734005	-0.22934441	-0.26170117	0.23366281	-0.52585584	0.5033931	0.34339267	0.2824413
0.13968083	-0.31677726	0.53138655	-0.31621382	0.05681261	-0.49431276	-0.109264225	-0.13060516	-0.55581695	0.3956342	0.468512	-0.5228657	0.4928652	-0.57444346	-0.46879798	-0.31074038
0.050473623	0.39329907	-0.78675026	-0.020281529	0.5505422	0.4312906	-0.1620492	0.22367887	0.27291033	-0.23373753	-0.9043911	0.79783756	-0.22509938	0.4128168	0.30579877	0.07405135
-0.2549248	0.31869704	-0.79070735	0.36100084	-0.29509667	0.07591159	-0.331236	-0.48948196	0.27407688	-0.4364352	-0.3222098	0.28362438	-0.29513484	0.11790554	0.2349077	0.38737416
-0.3031371	-0.28598726	0.13028394	0.028661283	0.7989343	0.3864925	-0.1910702	0.6187858	-0.03388988	-0.24446876	-0.39496508	0.115694225	-0.01969585	0.23636518	-0.0042280634	0.31647626
0.08849211	-0.16505018	0.04151872	-0.41812024	0.37919512	-0.24046515	-0.7133549	-0.48353568	-0.8177088	0.1307324	-0.21196845	-0.1600496	0.7355497	-0.7983631	-0.71064353	-0.110882014
-0.25124294	-0.45995587	0.42773595	-0.058960494	0.6275223	-0.012514042	-0.3025878	0.47108367	-0.33011055	0.066671684	0.007219049	-0.26299617	0.36167777	-0.13363613	-0.3487735	0.074747995
0.03276137	-0.5439138	0.4684126	-0.76939785	1.3257443	-0.36522326	-1.167869	0.16379806	-1.1881863	0.655635	-0.21896265	-0.38889834	1.2993922	-1.1268618	-1.1323314	-0.41770703
-0.32825643	-0.15985486	-0.20704913	0.24768169	0.08810193	0.19611748	-0.2514466	-0.08697888	0.022082582	-0.33120102	-0.2502191	0.19763325	-0.20259354	0.131807	-0.02824556	0.35854086
-0.04971211	-0.042226844	-0.00078276405	-0.04469009	0.34867287	0.14851819	0.044101037	0.3912738	0.14652175	-0.086445354	-0.123799585	0.034594905	-0.115343414	0.30106273	0.15626732	0.10430215
0.20286085	-0.08641518	0.16010131	-0.24199073	-0.017167702	-0.3548214	-0.099379234	-0.22494301	-0.3096576	0.3104706	0.19954075	-0.25390473	0.3280223	-0.394867	-0.30743548	-0.29443094
-0.7896925	-0.8106987	0.08441567	0.64138126	-0.1097406	0.054959614	-0.8096747	-0.726182	-0.48967236	-0.6503981	0.2671943	-0.4735929	-0.019046169	-0.543193	-0.55729693	0.72492844
-0.36112314	-0.69755745	0.59335303	0.041003477	0.29554406	-0.24845672	-0.21338004	0.46475604	-0.3424361	0.021666037	0.6259281	-0.6063881	0.21433781	-0.1785884	-0.3404036	0.14165185
-0.05087714	-0.34769645	0.58981663	-0.4434734	1.0162832	-0.05124545	-0.10462216	0.7692936	-0.37998486	0.3800119	0.12654254	-0.25572485	0.4962849	-0.046515252	-0.37551793	-0.2127996
-1.0420306	-1.347437	1.2285806	0.048745204	1.3147932	-0.34165984	-1.1087905	1.1901454	-1.1833422	0.058828443	1.0816555	-1.1666603	1.1101066	-1.004312	-1.1708865	0.5092607
-0.6595417	-0.5452919	-0.086471446	0.6423842	-0.27455208	0.24328083	-0.4316121	-0.3807289	0.031071728	-0.6128552	0.18580042	-0.10331017	-0.3981752	0.06548867	-0.088764824	0.68857914
0.75387245	0.9173719	-0.87100315	-0.858169	0.6514449	-0.38476244	-0.879614	-1.1107574	-1.0621723	0.64072317	-0.78570044	0.6397944	1.1142015	-1.0703309	-0.95127714	-0.81217736
-0.5455844	-0.70063806	0.54343724	0.2231933	0.34790912	-0.036035094	-0.43907943	0.28633013	-0.5150708	-0.059290502	0.42855084	-0.54202795	0.31963542	-0.33976817	-0.6179527	0.24243209
0.3937053	0.3491259	-0.15778936	-0.423054	0.22919486	-0.119059436	0.14693305	0.21383627	0.14939757	0.31639704	-0.16726139	0.09575953	0.029873652	0.16875441	0.13306293	-0.34539157
-0.081995174	0.34557027	-0.3308871	0.266772	0.23337245	0.41395152	0.40669605	0.61043906	0.8138583	-0.35120583	-0.37001073	0.440755	-0.8539879	0.82723737	0.7421094	0.27035528
-0.7801407	-1.0104425	0.99233943	-0.3654804	1.1254522	-0.6276714	-0.94401664	1.1316597	-0.9094538	0.39906603	1.0565947	-0.98122734	1.0478313	-0.87616557	-0.9507089	0.25314844
-0.33595338	-0.14564832	-0.33795586	0.41521758	-0.35919216	-0.0028921408	-0.2385055	-0.62184393	0.057953477	-0.44515803	0.09723592	-0.114473194	-0.28251266	0.06339172	0.12273248	0.48919988
0.0067211213	0.08297366	-0.19367084	-0.03510203	0.35242528	0.19942045	0.14735417	0.43307966	0.2990844	-0.10058149	-0.38508555	0.35748652	-0.302749	0.47292805	0.3159775	0.083202265
0.69584733	0.69777745	-0.77754873	-0.8407356	0.9125008	-0.052785423	-1.0544065	-0.74040675	-1.0093588	0.48066223	-0.99799323	0.80574286	1.0467275	-0.88623756	-0.87796503	-0.67315495
-0.7863455	-0.3486602	-0.6523708	0.7429146	-0.5882659	0.4664296	-0.649294	-0.8625035	0.29224253	-0.8585219	-0.20820081	0.29595166	-0.6142493	0.2151914	0.24042115	0.7750974
-0.32151452	-0.43501163	0.03813905	0.09733022	0.29872575	-0.07213361	-0.62954223	-0.35781986	-0.6415591	-0.2132657	-0.028330311	-0.27477333	0.4940641	-0.60796386	-0.66173464	0.26939076
0.11876711	0.24387982	-0.40810168	-0.25962633	0.41798294	-0.0474063	-0.48611534	-0.3829394	-0.39885294	-0.016966373	-0.5481805	0.34664723	0.48699832	-0.41301942	-0.35379902	-0.10317013
0.086895905	0.25375226	-0.4382947	-0.13608778	0.104706965	-0.08027744	-0.25428638	-0.55160624	-0.14414147	-0.07520417	-0.37557918	0.28838745	0.2089344	-0.19441028	-0.08688496	-0.014081261
-0.006238618	0.21506725	-0.32956016	0.20003694	-0.021381633	0.11868838	0.2499421	0.29006445	0.4339497	-0.20292221	-0.16839553	0.2065582	-0.532216	0.53599584	0.49959317	0.1260015
-0.18660353	0.13952312	-0.20438217	0.39896154	-0.34281576	0.17518957	0.22247528	-0.06629651	0.45839256	-0.26049465	0.008946528	0.089666344	-0.58759046	0.47851717	0.38654122	0.2391423
-0.26420552	-0.35073385	0.07215698	0.108784325	0.1218485	-0.023683047	-0.36508307	-0.19050403	-0.29759768	-0.18463044	0.10098493	-0.1529729	0.19143605	-0.20527084	-0.36290675	0.20278901
-0.123435825	-0.21490176	0.15168701	0.10755166	0.25202465	0.05072848	0.036517482	0.44466367	0.095358625	-0.07195463	0.0683564	-0.087797455	-0.19355273	0.21775888	-0.0070318654	0.14880799
0.5792832	0.2635419	0.26509532	-0.55635685	-0.30627182	-0.620776	0.39059097	-0.12011354	0.0053832205	0.74181795	0.44620702	-0.4089952	0.15209417	-0.2038847	0.046279315	-0.6215013
0.45577896	0.22274111	-0.2947265	-0.65628356	0.93430483	0.12192604	-0.3518573	0.16218926	-0.3461642	0.38740793	-0.74539506	0.47397855	0.533121	-0.20943548	-0.3082693	-0.4917989
-0.14777581	-0.18488887	0.2587919	-0.031471014	1.1112415	0.4983968	0.029257147	0.85274035	0.102117576	-0.16521299	-0.36354372	0.101850115	-0.20158923	0.4762028	0.039916705	0.18769182
-0.01316193	0.060562313	-0.31450233	0.03504739	-0.06964421	-0.14444338	-0.2314782	-0.43397602	-0.14542124	-0.09085598	-0.16183665	-0.018699793	0.029807933	-0.11669083	-0.09847864	0.19255388
0.7932473	0.41087368	0.83446425	-0.57221884	-1.2508686	-1.0105816	0.98796535	-0.6057595	0.6701874	0.8370657	1.2461615	-1.056441	-0.7558016	-0.25910762	0.6849382	-0.76759183
-0.45137408	-0.4768297	0.2556481	0.24751621	0.61066055	0.28332675	-0.36238834	0.4287533	-0.22811714	-0.3499428	-0.05748052	-0.12053132	0.08226261	0.1410613	-0.25108904	0.3613518
-0.78141165	-0.56174	-0.11358016	0.7208523	-0.23819059	0.27397045	-0.56399137	-0.41140118	0.025208367	-0.65280294	0.068732485	-0.16728461	-0.4319993	0.12731269	-0.070526235	0.73988384
-0.29200378	-0.63900137	0.68248487	-0.11890705	0.3996902	-0.24594192	-0.2253205	0.46002495	-0.55578035	0.23013507	0.4800983	-0.71799195	0.5232133	-0.45005423	-0.54666793	0.036111593
0.011229455	0.09530796	-0.11500175	0.021136876	-0.25742987	-0.2438733	-0.0013020632	-0.34509784	-0.04414966	-0.007278397	0.17135115	-0.18028337	0.032053016	-0.11511332	0.023498835	0.073568776
0.020688374	0.21542257	-0.52156657	-0.031622842	0.09382387	-0.012168099	-0.43226773	-0.62002	-0.2209221	-0.14453478	-0.49128208	0.38755196	0.21595201	-0.24871358	-0.1241242	0.009499986
-0.06482754	0.14681658	-0.15676585	0.2432748	0.022729067	0.13868734	0.34976554	0.2975649	0.41292274	-0.21221903	-0.046981335	0.15909544	-0.58827746	0.49572557	0.4134973	0.19405672
-0.7825656	-1.0162389	0.89687693	-0.26796317	1.018214	-0.61321896	-0.89492184	1.0647599	-0.87235326	0.397165	0.9910073	-0.9391517	0.9991119	-0.8727138	-0.8803124	0.29873326
-0.34083423	-0.15473703	-0.23181516	0.19319409	0.14455257	0.23146671	-0.6149714	-0.42690277	-0.3003571	-0.3075519	-0.35166925	0.17257145	0.13527438	-0.19889157	-0.29849193	0.29618365
0.24329709	0.3237645	-0.38343742	-0.27046522	0.36391428	-0.014476308	-0.0855569	0.0026878025	-0.079015546	0.015481277	-0.41015097	0.39189553	0.20091133	0.054354474	-0.010469361	-0.14083932
-0.14683317	0.06761322	-0.2678071	0.12396206	0.17280221	0.20788465	0.11518565	0.27373302	0.2816473	-0.23568286	-0.2803821	0.22781634	-0.40559095	0.43931302	0.3253617	0.19690198
-0.044472802	-0.007912986	-0.14142464	0.088153824	0.18815215	0.11770638	0.03511384	0.29376128	0.1862533	-0.12670316	-0.254185	0.23390247	-0.1606504	0.285933	0.12940273	0.17072897
0.30029017	0.025448965	-0.029576939	-0.5731827	0.5678389	-0.23776679	-0.32368514	-0.080646396	-0.47419268	0.383979	-0.33374673	0.059004273	0.6067499	-0.42904317	-0.39996317	-0.32389483
0.57844543	0.63403827	-0.3952538	-0.43300074	0.7677868	0.49953982	0.690397	0.9437861	0.71693546	0.20853472	-0.71588874	0.67674863	-0.5871731	0.8009381	0.69782656	-0.33007342
0.531258	0.32151863	-0.19877872	-0.7179662	0.6567163	-0.16496384	-0.3613484	-0.043809094	-0.37950552	0.5781734	-0.44832948	0.2542104	0.59449965	-0.34237164	-0.3663511	-0.6251302
0.4604416	0.13208658	0.4163241	-0.21284963	-0.65482175	-0.5194074	0.6294527	-0.06736575	0.43408716	0.43159714	0.66141266	-0.56762177	-0.40426344	0.052109566	0.37152442	-0.3194595
0.014181573	-0.20041218	0.15304933	-0.1336311	0.2792628	-0.09170665	-0.33151448	-0.13178015	-0.44302776	0.05336973	0.014587799	-0.1478077	0.40715253	-0.46234018	-0.45242473	-0.07972125
-0.26710436	-0.19143164	-0.05921292	0.24707521	0.011979709	0.07228894	-0.091558814	0.01818291	0.08708626	-0.23301509	-0.023699615	-0.007129644	-0.25286862	0.22811633	0.06860832	0.3361865
-0.05309235	-0.366685	0.5230177	0.01555956	-0.0448398	-0.19178481	0.119946115	0.30300167	0.025693731	0.11581314	0.48299617	-0.5428646	-0.13560054	0.04390258	-0.061463393	0.026575318
0.21701767	0.046759173	-0.020219466	-0.4398861	0.4867322	-0.01204964	-0.39302298	0.13333967	-0.39425594	0.1915991	-0.3926498	0.174086	0.54103094	-0.17264302	-0.36863193	-0.19731627
-0.23707552	-0.08067703	-0.18340072	0.1299571	0.042618655	0.03617874	-0.40654084	-0.3357937	-0.20060195	-0.2534025	-0.17061707	0.13028911	0.1502031	-0.14579646	-0.22674295	0.24800605
0.5748762	0.7727989	-0.5686058	-0.40841663	0.5109022	0.28362933	0.48551336	0.5903741	0.4959695	0.24011916	-0.5999246	0.6371686	-0.32484365	0.5275381	0.57007754	-0.32916445
-0.3508879	-0.06265752	-0.39648116	0.47737035	-0.5577104	0.0032260574	-0.0036370293	-0.42561498	0.40077493	-0.42496738	0.13534869	-0.11564942	-0.72016513	0.26792133	0.4427096	0.4709401
0.06626443	0.34051824	-0.23930174	0.14811856	-0.57957506	-0.2530157	0.34800017	-0.3430493	0.59633607	0.0053121964	0.31630436	-0.20255359	-0.6341442	0.2000614	0.565592	0.1039393
-0.25271264	-0.2570568	-0.1042407	0.25438312	-0.24405806	0.007207775	-0.21354662	-0.5451264	-0.08287523	-0.23753646	0.01879992	-0.114913665	-0.057581257	-0.21893084	-0.11665685	0.29399943
-0.31825802	-0.5606554	0.5312277	0.18648748	-0.062254984	-0.25588456	-0.13333398	0.019778257	-0.30826482	-0.004294132	0.4917287	-0.55125433	0.122204736	-0.30676675	-0.3342822	0.16052242
-0.1868452	-0.7502282	1.0323535	-0.2138007	0.057443593	-0.6609262	-0.0070448597	0.55111384	-0.45660797	0.47749054	1.0882071	-1.133465	0.46476933	-0.60229063	-0.4446585	-0.19332471
0.18520984	0.18069047	-0.1832741	-0.20250632	0.7440196	0.31168416	0.07997203	0.631073	0.21936393	0.024131797	-0.49896625	0.39530367	-0.07969207	0.45344138	0.16768318	-0.12915769
-0.047359165	-0.2518311	0.18474863	-0.1463192	0.6310212	0.12991768	-0.25707483	0.49144247	-0.14510882	-0.02798118	-0.15256608	-0.024353897	0.21556155	0.07562447	-0.16922101	0.07986452
0.04994238	-0.29887027	0.39531416	-0.32677755	0.73697865	-0.045330167	-0.19188018	0.5370061	-0.26368907	0.27041337	0.049332127	-0.14481133	0.42978677	-0.057890106	-0.29184365	-0.12955552
-0.11313636	-0.32247075	0.35983878	-0.091322094	0.288175	-0.15351985	-0.13718863	0.20070302	-0.31723228	0.07070351	0.20066768	-0.30561492	0.27477804	-0.13374363	-0.2710138	-0.03997355
-0.20393227	-0.12611787	-0.10673278	0.116050914	0.21329506	0.049897555	-0.2935266	-0.0390614	-0.13191654	-0.24046962	-0.20045696	0.080890924	0.062276512	-0.07021824	-0.19407071	0.19573116
1.1503868	0.6559711	1.0633699	-0.93984574	-1.4867827	-1.2212034	1.231555	-1.085553	0.94808453	1.1436633	1.4325567	-1.4517058	-0.9225983	-0.48751634	0.93444324	-1.0226158
-0.7748114	-0.3384723	-0.24057001	0.67136186	-0.19956338	0.32018682	-0.6907968	-0.49246004	-0.052403647	-0.73892885	-0.12599958	0.022486016	-0.34685472	0.09219512	-0.090236165	0.74940276
-0.3674979	-0.41347927	0.21816505	0.2360566	0.24372125	0.15824561	-0.1103685	0.2708792	-0.05493586	-0.18974003	0.10780149	-0.11587726	-0.1349075	0.09547194	-0.06156045	0.31266034
1.1794403	1.420937	-1.3615531	-1.21193	1.24489	0.11139898	-1.3180737	-1.3355422	-1.2912648	1.205095	-1.4813981	1.5883161	1.3069007	-1.2466527	-1.2485377	-1.3053948
0.008356671	-0.052177865	-0.06972365	-0.05360602	0.29197964	-0.014239704	-0.12181294	0.1423582	-0.08247147	0.043289635	-0.150787	0.04593684	0.053673822	0.010116412	-0.038994625	-0.012904434
0.97492534	1.1767397	-0.82985306	-0.9517809	0.27036223	-0.53148496	-0.3153418	-1.142793	-0.7466984	0.900738	-0.49850336	0.46040264	0.8621769	-0.85445946	-0.5318271	-1.0659069
0.60933834	0.80880165	0.0804119	-0.35049525	-0.8720202	-0.62371534	0.85327715	-0.2379998	0.78077424	0.53812575	0.6462626	-0.4763476	-0.78476757	0.30153257	0.9206161	-0.46250078
-0.21710747	-0.20262833	0.10453164	0.079301916	0.26237065	-0.07847655	-0.28687042	0.04670702	-0.20612517	-0.11455866	-0.059747938	-0.17859216	0.15196049	-0.030490221	-0.20657341	0.2289493
0.21527392	0.18766597	0.22848147	-0.10959139	-0.50943977	-0.42745173	0.519681	-0.00632295	0.43667465	0.24478383	0.5105203	-0.35437173	-0.59119976	0.21775779	0.50732785	-0.15031107
0.10689984	-0.16303004	0.32000795	-0.11134498	-0.035525277	-0.27796745	0.1206965	0.15769553	-0.057518955	0.18290244	0.30594093	-0.3503573	0.05201083	-0.024705928	-0.096495084	-0.08582025
0.4713846	0.5630238	-0.79711825	-0.6755763	0.7166427	-0.10173432	-0.8453553	-0.97027045	-0.9531966	0.41512766	-0.87459075	0.6436869	0.9359789	-0.9014738	-0.8826788	-0.58028704
-0.81890273	-0.77606565	0.4912095	0.40981463	0.36431807	0.059829522	-0.72744334	0.22374661	-0.5273604	-0.3794211	0.6131364	-0.6562764	0.32105294	-0.4944416	-0.58561933	0.567688
0.3273834	0.0035623063	0.02087988	-0.6318247	0.47279298	-0.30213866	-0.47861472	-0.31106508	-0.67427146	0.5084678	-0.2758543	-0.057925664	0.79199046	-0.6915655	-0.6008662	-0.46633404
0.03632643	0.121191144	-0.09950411	0.14374861	-0.16175134	-0.038764182	0.2851994	0.13885954	0.29538417	-0.066112	0.03591009	0.051532447	-0.35473844	0.2841409	0.31700373	0.037237056
0.42541152	-0.21323262	0.692353	-0.43833417	-0.46569347	-0.72437024	0.5864181	0.12368582	0.03177341	0.6955249	0.8724022	-0.7051545	-0.060712494	-0.16137703	0.096702345	-0.5188301
0.045368273	0.115832664	-0.23426305	-0.079588115	0.24979627	0.21315336	-0.025778592	0.12830202	0.0373985	-0.081855886	-0.2734758	0.199163	-0.0912576	0.10653031	0.08122679	0.03530631
0.41729277	0.46308553	-0.19496506	-0.29793197	0.22034502	0.11252567	0.46246648	0.5243104	0.49921164	0.16698563	-0.19502327	0.26248002	-0.36691502	0.5182961	0.44355494	-0.2534034
-0.44963387	-0.21541701	-0.06421301	0.24263863	0.08263851	0.15370654	-0.4689913	-0.56862164	-0.3442691	-0.4270271	-0.1383943	0.0055382387	0.14234829	-0.22932011	-0.32039443	0.4304884
-0.74493814	-0.45921993	-0.2499239	0.6039249	-0.04328162	0.15569106	-0.71181643	-0.48319447	-0.11926806	-0.71405053	-0.13160332	-0.14193566	-0.2654432	0.020074284	-0.22847809	0.7529854
0.1727926	0.15815625	-0.095620565	-0.27610168	0.14440146	-0.19918843	-0.11705523	-0.10956693	-0.13686644	0.120027386	-0.07577308	-0.043168135	0.17236497	-0.098652944	-0.13022141	-0.12368228
-0.01702824	0.24247134	-0.3523443	-0.098525584	0.5286356	0.37311342	-0.11023403	0.20526618	0.12095979	-0.16431855	-0.67439985	0.5384229	-0.10350833	0.3216079	0.2089686	0.11635858
1.0911175	1.2290252	-1.0689173	-1.1055732	0.9798922	-0.25977257	-0.7097557	-0.68747866	-0.9403565	1.0560969	-1.0653063	0.98360634	1.1025835	-0.882444	-0.8588367	-1.1623662
-0.66186965	-0.14730877	-0.6630832	0.6832729	-0.7723639	-0.0057159327	-0.4408174	-1.0711749	0.4902972	-0.6937208	0.10800571	-0.09336737	-0.78448486	0.2104722	0.31369004	0.63620126
0.110423334	0.05073728	-0.098836236	-0.22487332	0.51333797	0.10822575	-0.20346095	0.14793812	-0.15071042	0.08344027	-0.3170391	0.18264964	0.28294477	-0.041977733	-0.12364875	-0.17391858
0.458074	0.23455983	0.1130903	-0.45866933	-0.0019560675	-0.3726395	0.27009928	0.09649585	0.10707124	0.4826412	0.18400805	-0.10397886	0.044516128	-0.025044756	0.07919246	-0.45843354
0.439823	0.3054181	-0.14620537	-0.4982368	0.25279406	-0.09059565	0.07623296	0.0590652	-0.09785978	0.37850064	-0.19076276	0.15691468	0.1873148	0.019425549	-0.044332936	-0.34699127
0.39631933	0.2607164	-0.1798277	-0.40822262	-0.14977504	-0.4339997	-0.22102357	-0.55012757	-0.37879324	0.37312484	0.04470915	-0.19364752	0.45164886	-0.585104	-0.34811732	-0.3329101
-0.30421707	-0.5057859	0.08812215	0.24928132	-0.08931484	-0.13266747	-0.47870955	-0.4675855	-0.45964763	-0.18498026	0.17888601	-0.4363308	0.19910751	-0.40134934	-0.3860531	0.32192838
-0.057884213	0.1947269	-0.3318615	0.058877617	0.40198392	0.41877493	-0.16918558	0.17869522	0.05552347	-0.24000683	-0.521753	0.44731802	-0.10304674	0.25131002	0.14385313	0.10166858
0.001893058	0.24124631	-0.3418456	0.11147568	-0.3140954	-0.075383484	0.054843582	-0.355768	0.187306	-0.118946664	-0.012240514	0.040163506	-0.14233285	0.08130689	0.24325448	0.10152581
-0.6816482	-0.4663222	-0.2147385	0.60222405	-0.075510554	0.1607794	-0.72850215	-0.4659333	-0.10552892	-0.6327165	-0.19651784	-0.08455865	-0.23756635	-0.011748761	-0.19251254	0.6575778
0.2522942	0.47842807	-0.32582	-0.18080737	-0.31960285	-0.2175802	0.24141176	-0.2698668	0.1975958	0.21744153	0.10763428	-0.0015408245	-0.09000121	0.08888735	0.2462331	-0.21934813
0.3286903	0.3487708	-0.5021001	-0.47339353	0.648488	0.017532717	-0.72029865	-0.59452254	-0.7117211	0.29495314	-0.7039001	0.5325017	0.7906275	-0.5647856	-0.6015543	-0.40559188
0.9890774	0.9907993	-1.1140406	-1.0484111	1.1419353	0.04977991	-1.1771666	-1.0939242	-1.1447016	0.92127436	-1.3701226	1.2425545	1.2075613	-1.1293836	-1.023893	-0.9706391
-0.31284663	-0.18344253	-0.20439339	0.16916974	0.104959324	-0.0123747885	-0.47560966	-0.38469657	-0.26537582	-0.3005485	-0.15256537	0.0019340996	0.07854412	-0.13613944	-0.26209766	0.31968522
-0.016079603	-0.29184872	0.17380704	-0.18654752	0.3777209	-0.058935843	-0.3133882	0.04755986	-0.36725003	0.060501885	-0.073646925	-0.10023631	0.38525167	-0.26441216	-0.3467535	0.0046171835
-0.33881634	-0.3259985	0.049164996	0.1629183	0.13874418	0.01470892	-0.3427671	-0.055994444	-0.21725775	-0.26250634	-0.027087398	-0.1759764	0.05349741	-0.072706595	-0.20000142	0.39612183
0.341742	0.63284653	-0.81507814	-0.17428307	0.92193216	0.58424467	0.3599648	0.69801646	0.6511636	-0.19343127	-0.8981929	0.81189936	-0.65309936	0.6985312	0.6647003	-0.029832484
-0.3041198	-0.34789035	0.082459025	0.08951366	0.17832258	0.034167856	-0.47431448	-0.16245818	-0.39844748	-0.20458645	-0.025054788	-0.16322796	0.29163915	-0.34166864	-0.384463	0.21381225
0.33516356	0.30082572	-0.5030346	-0.5407009	1.0372425	0.3440769	-0.6457196	0.23296247	-0.4919117	0.09804735	-0.90460724	0.62534183	0.6577724	-0.12737207	-0.42571604	-0.33813748
-0.3005835	-0.40641835	0.19616354	0.16879536	0.6014148	0.2006815	-0.43734926	0.3947227	-0.24441862	-0.22656308	-0.11260271	-0.113487974	0.13759457	0.011238986	-0.3061411	0.3180225
0.022012794	0.20524113	-0.20654216	-0.008469232	-0.08488132	-0.028574347	-0.008175477	-0.10785673	0.15626068	-0.10145915	-0.09081553	0.14678435	-0.13791117	0.10665278	0.14635952	0.100344464
0.62054855	0.9853536	-1.0625405	-0.5733322	0.61773616	0.06750504	-0.43182	-0.34046954	-0.28361028	0.2574913	-0.9792089	0.94685227	0.56592524	-0.19021598	-0.18698609	-0.45556462
0.27218944	0.3341704	-0.3214725	-0.19772781	0.35486495	0.15759674	0.37503788	0.5322835	0.42508942	0.038726874	-0.38423085	0.39034316	-0.38302767	0.5861429	0.46497405	-0.13446791
0.081650496	-0.20434357	0.20392728	-0.40851322	0.31361768	-0.2843904	-0.3872057	-0.32288885	-0.6163709	0.31927618	-0.016513636	-0.17252876	0.6828694	-0.5661731	-0.56265557	-0.24805222
-0.14265262	0.0073947185	-0.23343243	0.11769561	0.27218756	0.07406478	-0.22092524	0.001296438	0.018288977	-0.31499135	-0.3379851	0.15852855	-0.09277928	0.07565992	0.05573919	0.29203096
0.41152602	0.4607866	-0.26166672	-0.33022282	0.15378487	-0.0457912	0.4345944	0.34409276	0.39925408	0.18616171	-0.15021294	0.30615723	-0.34741202	0.47604343	0.46461856	-0.28066096
0.8517107	0.37499923	0.84140515	-0.55241936	-1.2252479	-0.9896184	0.96173424	-1.0514791	0.6263639	0.91027266	1.2775502	-1.2144035	-0.6832553	-0.52539253	0.6123363	-0.78670937
-0.005608977	-0.1787519	0.19343454	0.09611886	-0.16062081	-0.23028307	0.093923226	-0.035024136	0.042461358	-0.01018546	0.25146654	-0.2553809	-0.18837063	0.00864307	0.05230369	0.051369682
-0.51272845	-0.1775191	-0.44222707	0.4699714	-0.17341752	0.29460987	-0.37455985	-0.31634957	0.18604557	-0.5144105	-0.23286697	0.10537314	-0.38674784	0.19325021	0.15480216	0.5664749
-0.2463383	-0.5436179	0.50140876	0.27534407	-0.1678119	-0.2991263	-0.053925022	0.0480969	-0.20572102	0.023286255	0.6653536	-0.6241909	-0.045314424	-0.24248974	-0.23891516	0.20514241
-0.5525678	-0.18786427	-0.42816725	0.58285755	-0.60698646	0.24865526	-0.16073102	-0.4591079	0.51604396	-0.6261087	0.014654812	0.027767003	-0.74183136	0.38476825	0.44132838	0.5831034
0.056497216	0.18705446	-0.32085776	-0.23492491	0.37731856	-0.005306868	-0.51921123	-0.5598951	-0.44496027	-0.04629204	-0.47996396	0.2399752	0.47159255	-0.38102633	-0.40358335	-0.09181278
0.1799986	-0.062608324	0.117893234	-0.25419	0.23625483	-0.19310287	-0.14345676	0.0014839666	-0.3120873	0.23828751	-0.011634651	-0.05665075	0.353787	-0.24385773	-0.29852042	-0.15891933
-0.29635864	-0.047704116	-0.37629405	0.23778431	0.06336046	0.2642618	-0.4414494	-0.35801095	-0.2089285	-0.41566333	-0.31253085	0.21988508	0.0025465505	-0.12338158	-0.11332417	0.25867137
-0.36120364	-0.575522	0.27513048	-0.041680016	0.9223699	0.26709104	-0.80364287	0.27434543	-0.6710356	-0.20129867	-0.29869077	-0.09737221	0.5688476	-0.37713733	-0.6892275	0.19921742
0.05398031	-0.1369978	0.26620832	-0.14902188	0.31358472	-0.08228324	0.06968066	0.43610474	-0.021125171	0.17832045	0.17954856	-0.13657443	0.06497846	0.043110278	-0.0010432254	-0.08938274
-0.38387245	-0.499073	0.1147025	0.017960686	0.60566884	0.17186122	-0.69466746	0.096508846	-0.44314322	-0.20897684	-0.17799345	-0.08015647	0.36917764	-0.2725989	-0.51120746	0.3029492
-0.4666623	-0.7911381	0.7230674	-0.06175329	0.3899668	-0.37961692	-0.39911386	0.49775523	-0.62065077	0.18060176	0.74244666	-0.8118091	0.50756127	-0.5426556	-0.6330327	0.13132448
-0.49804693	-0.5830363	0.3690893	0.27590352	0.20943597	-0.013017172	-0.4390299	0.0007541413	-0.4221891	-0.25604743	0.3433277	-0.42588183	0.14256422	-0.2600772	-0.42498037	0.33414626
-0.06458521	-0.009460263	-0.10174647	0.19305749	-0.09487256	0.06758924	0.1991333	0.18899676	0.32257447	-0.18476863	0.026640626	0.07501994	-0.44498283	0.33713698	0.25310993	0.14908342
-0.21061423	-0.57737434	0.64505434	0.08261352	-0.0703011	-0.50259286	-0.1340015	0.047123805	-0.503366	0.17165644	0.74856305	-0.77735573	0.27582085	-0.55097425	-0.48548436	0.026845697
0.98800784	1.2012079	-1.2387599	-0.9727718	0.93216324	0.063439235	-0.8424983	-1.0840642	-0.8459798	0.90296555	-1.2731018	1.4133774	1.0686978	-0.9506793	-0.74890965	-1.0994489
-0.12092324	-0.007967052	-0.13994017	0.11082852	0.38176122	0.27175418	-0.1729759	0.17634222	0.07898911	-0.2425056	-0.28010562	0.1408035	-0.081008434	0.14194499	0.056536593	0.21160002
0.6884263	0.3789314	0.20717204	-0.57149863	-0.22904578	-0.35799372	0.841747	0.53393984	0.6065486	0.5600454	0.39336365	-0.20379409	-0.5927388	0.39354852	0.58038634	-0.504088
0.16685025	0.2912873	-0.26767367	-0.21765007	0.101360925	-0.007898431	-0.030609801	-0.018764542	0.029591447	0.101090975	-0.23792264	0.16967474	0.080311865	0.060888775	0.036870986	-0.08200988
-0.37668487	-0.052069195	-0.32057062	0.388087	-0.10549317	0.2708559	-0.15569703	-0.05715085	0.37165117	-0.46510068	-0.12477491	0.19221005	-0.58404005	0.4251704	0.30975738	0.48407784
-0.7514095	-0.13658416	-0.84116894	0.8012092	-0.6520363	0.637132	-0.6442054	-0.7964319	0.3868851	-0.9854784	-0.6203851	0.5825173	-0.75048184	0.44993094	0.28570625	0.8322599
0.8777235	0.93866694	-0.8441613	-0.7490176	0.9286646	0.561462	0.82282525	0.9551032	0.81942797	0.2297752	-0.9539816	0.8775105	-0.8295271	0.83431053	0.80694693	-0.50285536
-0.14544746	-0.5090378	0.4963745	0.033005357	-0.036010046	-0.3159317	-0.28160995	-0.30994633	-0.5357455	0.03133074	0.561488	-0.64377207	0.4053252	-0.67758083	-0.4740789	0.051153023
-0.04902369	-0.24168347	0.13219044	-0.14927135	0.52233654	0.054732647	-0.23621231	0.32794073	-0.25469577	0.0580732	-0.15670925	-0.029916605	0.2579122	-0.13530236	-0.24196887	-0.023366475
0.41528565	0.60886735	-0.55257976	-0.3767576	-0.00062054396	-0.12365973	-0.1768653	-0.43467543	-0.27499014	0.24915843	-0.27277532	0.29707572	0.42745745	-0.31444374	-0.12980421	-0.32155618
-0.10769737	-0.0248721	-0.012621306	0.07620426	0.107361436	0.12519531	-0.08471938	0.20226851	0.08856669	-0.11493185	-0.07100825	0.029396033	-0.09275762	0.17854413	0.066834986	0.15492061
-0.040656622	-0.07036853	0.046889	-0.18496683	0.74865746	0.30543074	-0.0010502964	0.5821713	0.080161385	-0.041345727	-0.3083253	0.18408851	0.0073476946	0.28192765	-0.02672203	0.012440258
-0.08626459	-0.3281826	0.25230035	-0.082954936	0.29173955	-0.045378778	-0.1636684	0.18039544	-0.28201827	0.008262203	0.086873226	-0.23318961	0.1810005	-0.1785996	-0.2891884	0.073656894
0.42681098	0.79015785	-0.46076652	-0.20129998	-0.00916622	0.13080828	0.7933377	0.59496343	0.9572961	0.25849718	-0.24726525	0.4165095	-0.929804	0.7966201	0.88651097	-0.32343844
-0.5819972	-0.30832464	-0.27515587	0.5538886	-0.004769899	0.40336397	-0.2636879	-0.020734355	0.29775348	-0.5187842	-0.1647567	0.0953199	-0.49986047	0.35622686	0.19379553	0.5496462
0.7988765	0.95425904	-0.44319567	-0.5359706	-0.043462373	-0.13312188	0.5669035	0.2680866	0.52664894	0.4941752	-0.101725884	0.29097995	-0.18650156	0.3859541	0.5600381	-0.623446
-0.75113726	-0.48859668	-0.584122	0.69351214	-0.08207555	0.20033999	-0.82351005	-0.75474644	-0.16147996	-0.8358257	-0.45310438	0.105776235	-0.28245273	-0.09240798	-0.26655626	0.84123784
-0.9247112	-0.5255392	-0.6423598	0.891125	-0.62502456	0.4287951	-0.7198485	-0.80824304	0.14924277	-0.9756172	-0.1657596	0.04978516	-0.720397	0.08048146	0.054433756	0.95513314
0.6861327	0.96472037	-0.85182714	-0.40024513	0.5745422	0.46607104	0.84167844	0.8467749	0.9574288	0.14724667	-0.858681	0.88259894	-0.930969	0.94532377	0.9568011	-0.38923615
-0.6229839	-0.43806678	-0.41165012	0.52666175	-0.0056801187	0.45594898	-0.6731508	-0.39396232	-0.2129795	-0.7058546	-0.32896283	0.13616607	-0.13432378	-0.10195548	-0.30597207	0.6794106
-0.22239466	-0.283802	0.07234227	0.1060927	-0.33188203	-0.28305185	-0.23304413	-0.43253642	-0.17299828	-0.124342315	0.3772445	-0.42482924	-0.0646533	-0.21093458	-0.09995084	0.1935497
-0.35471073	-0.24795546	-0.3524357	0.36899537	-0.21943648	0.13379556	-0.448135	-0.57254606	-0.025516748	-0.4100604	-0.079633616	0.0055782152	-0.18411425	-0.07234171	-0.082508706	0.46919468
-0.52712893	-0.29145965	-0.13289443	0.4659225	-0.09614149	0.13435712	-0.28161132	-0.22443411	0.035480227	-0.48085102	0.010508057	-0.09376289	-0.40531182	0.18173091	0.045821637	0.5643024
0.30231407	0.09697819	-0.06489643	-0.36740547	0.28916177	-0.119125016	-0.18389748	-0.07953289	-0.2636024	0.33626756	-0.14662622	0.039764907	0.37751278	-0.20650117	-0.2856588	-0.27698207
-0.14609824	-0.7752418	1.031455	-0.35764554	0.47358122	-0.66224545	-0.21835867	0.7186758	-0.68901926	0.5827356	0.9331542	-1.0002493	0.7380481	-0.6775607	-0.63412035	-0.25351474
0.78495747	0.75188094	-0.48490903	-0.83590865	0.29561523	-0.30551997	-0.3192345	-0.5863259	-0.62486	0.6118901	-0.439316	0.28344747	0.72389215	-0.59857345	-0.49964106	-0.77028364
0.6636794	0.4259334	-0.3134305	-0.7520487	0.40660334	-0.30152163	-0.44074732	-0.39935088	-0.6766815	0.6357362	-0.36205137	0.22400545	0.8092636	-0.69881105	-0.6501961	-0.6595669
0.65267	0.2698567	-0.02788149	-0.823644	0.043873437	-0.5812989	-0.23225221	-0.8649681	-0.7615162	0.80364156	0.015972327	-0.22341071	0.83150464	-1.0029182	-0.66883034	-0.74753195
-0.34510037	-0.26878965	0.103167176	0.358106	-0.35035205	-0.13566963	-0.06492339	-0.37395412	-0.011891727	-0.20941913	0.32628882	-0.33399767	-0.26689947	-0.055915028	-0.06373704	0.33551726
0.42664525	0.2162974	-0.047944818	-0.54788965	0.27762413	-0.23983194	-0.19672573	-0.1951575	-0.36576277	0.38847566	-0.21353132	0.057989046	0.48964816	-0.32251197	-0.2838881	-0.37183818
-0.05008024	-0.05418576	-0.07325446	-0.032365844	0.31115216	0.06960542	-0.36511415	-0.09102828	-0.27764794	-0.101774946	-0.29847762	0.1282783	0.18323474	-0.11323058	-0.21099982	0.08924173
0.12576395	0.14578885	-0.07637358	-0.17628574	0.3405197	0.053923726	0.14133947	0.25277528	0.1172274	0.09184617	-0.18251532	0.21320873	-0.09908596	0.2149138	0.09916747	-0.1545626
0.14376777	0.00348882	-0.009673277	-0.22255835	0.46584854	0.12384277	0.021300461	0.39026853	0.049449958	0.12771077	-0.22475687	0.15556505	0.021105379	0.19335741	0.012278589	-0.15350434
-0.18956287	-0.2214864	-0.18596487	0.14363591	-0.33503386	-0.12853229	-0.26747584	-0.68540925	-0.119092256	-0.23268229	0.21688765	-0.24372712	0.027603278	-0.24929635	-0.16705173	0.21981423
0.34248453	0.035982203	-0.16267158	-0.57980657	0.8692416	-0.016609715	-0.57185984	-0.03429891	-0.60723215	0.39430866	-0.5552133	0.25939262	0.7395721	-0.43777904	-0.5321511	-0.39901522
-0.15237014	0.38561615	-0.64272225	0.21623181	0.3458674	0.31422523	0.015432229	0.27324474	0.53230876	-0.35191658	-0.60861546	0.47246265	-0.5632231	0.6149622	0.49234024	0.3330406
0.49944714	-0.064670146	0.32303345	-0.57194895	-0.0146453725	-0.518451	0.2029327	-0.049393453	-0.27855965	0.5285727	0.35817	-0.37487084	0.3044632	-0.33901986	-0.12246032	-0.490459
-0.6385817	-0.9741038	1.006524	0.2503981	0.28997853	-0.5458022	-0.47266638	0.612406	-0.8023599	0.13465232	1.1831995	-1.1764919	0.67832255	-0.84564674	-0.79919213	0.35645503
-0.30705267	0.031968057	-0.21211392	0.28073594	0.17303896	0.19553757	-0.0948342	0.089162394	0.2474952	-0.35176533	-0.25551236	0.22974099	-0.31558982	0.3436898	0.16038232	0.33952314
-0.19078016	-0.16074467	0.021852108	0.0459239	0.58545685	0.47699875	-0.07074654	0.39402306	0.020669732	-0.2493396	-0.35523158	0.17540276	-0.11305414	0.34255224	0.049529478	0.23333862
-0.82668716	-1.1830281	1.2561648	-0.07834513	0.9009867	-0.7132724	-0.74907225	1.043593	-1.0454386	0.41997916	1.3784982	-1.3255326	1.0342515	-1.1015271	-1.0167549	0.30666283
-0.118467145	-0.09260319	-0.10469314	0.046211194	0.59656703	0.33584866	-0.17893371	0.3108543	-0.02523813	-0.24947433	-0.41452652	0.24233074	-0.039288074	0.23449601	0.005182197	0.21046714
0.60295177	0.67009693	-0.45999667	-0.5713878	0.20816629	-0.1544414	-0.25316244	-0.31565392	-0.31892172	0.44885746	-0.37529448	0.30651686	0.46515954	-0.36210674	-0.24999161	-0.5687634
0.012523355	-0.3597423	0.54548883	-0.121466346	-0.10957126	-0.41172394	0.13489737	0.25142398	-0.17034316	0.30193213	0.6821789	-0.607637	-0.008003306	-0.15582101	-0.10790777	-0.12975293
-0.1424202	0.19424593	-0.4358225	0.24365392	-0.10209165	0.23715423	0.05926604	0.059492793	0.47717416	-0.28849858	-0.20008518	0.20380773	-0.4993046	0.44993198	0.38252723	0.34489623
0.7044637	0.17263374	0.7192235	-0.42984596	-0.9464162	-0.74176735	0.8163608	-0.59083265	0.57532257	0.65755355	0.9068698	-0.8779977	-0.6487468	-0.16314958	0.5559185	-0.6468015
-0.50226146	-0.505167	0.37391275	0.23273578	0.43254575	0.05660827	-0.46736392	0.20174624	-0.422596	-0.18140422	0.18185797	-0.33283177	0.24401659	-0.23289102	-0.3643802	0.33927277
0.2191012	0.16816883	0.08096963	-0.18996833	-0.12549007	-0.10274891	0.40528366	0.20652135	0.33150685	0.15083252	0.21353373	-0.060159285	-0.25352317	0.2542925	0.31590757	-0.17741266
0.13403174	0.1787631	-0.0068582506	-0.13881464	0.070668615	0.01939981	0.37244135	0.40195277	0.33204585	0.11811335	0.00990675	0.05444148	-0.35146022	0.30373123	0.31849352	-0.11034183
-0.09416357	-0.20902067	0.16809954	0.03269932	-0.39675504	-0.38025442	-0.12219888	-0.71619797	-0.22098756	-0.023648364	0.42914388	-0.58421683	0.11476845	-0.54001933	-0.25346994	0.053130824
-0.015790077	-0.586189	0.8389452	-0.6860858	0.9109156	-0.30775973	-0.30067223	0.8160051	-0.5927856	0.83302236	0.48131418	-0.61838686	0.7762746	-0.4239802	-0.6353957	-0.32408208
0.43441224	0.48831132	-0.46052063	-0.32184607	0.13480355	-0.06285201	0.10856605	0.033910107	0.11866007	0.28081188	-0.36757302	0.33824563	0.005916694	0.15172553	0.119347766	-0.30836257
0.76932734	0.9382734	-0.85079026	-0.5803706	1.0490253	0.5473199	0.8749804	0.9959795	1.0070254	0.20453504	-1.0626096	0.94306964	-0.8730489	0.9654931	0.9514116	-0.44575727
0.42358962	0.8508344	-1.0025568	-0.45439106	0.62787634	0.09661587	-0.54929876	-0.47283256	-0.4798477	0.15140791	-0.99241304	0.8871207	0.5265615	-0.39322877	-0.36383078	-0.4068943
-0.1554563	0.18374366	-0.458767	0.18436453	0.17269418	0.40748876	-0.21756113	-0.06331435	0.13861056	-0.33722073	-0.5279082	0.41728416	-0.20931982	0.2728834	0.20914355	0.272729
0.1982884	0.016966924	0.05455899	-0.16489282	-0.3879872	-0.37918687	0.110976875	-0.42022845	-0.068362534	0.23822342	0.36054367	-0.3393045	0.028499415	-0.31021857	0.0042104255	-0.17659292
-0.049304284	-0.24607143	0.3387885	-0.07506718	0.08851136	-0.20948392	-0.06351128	-0.0076415036	-0.28686303	0.16394876	0.32997262	-0.39813596	0.2477123	-0.3150215	-0.2505272	-0.049380697
-0.44429678	-0.5095388	0.025232894	0.36378813	-0.07554805	0.009933229	-0.4160239	-0.35038477	-0.23383433	-0.3613086	0.09314385	-0.2760827	0.052042067	-0.20171876	-0.29945213	0.46705955
0.7371474	0.695662	0.035542764	-0.57325286	-0.39887238	-0.34556663	0.8132177	0.3154492	0.65357107	0.59369695	0.36891475	-0.1453679	-0.66128993	0.39267224	0.7687104	-0.58093077
-0.24302436	-0.2193122	-0.023881864	0.1539667	-0.11926307	-0.08602908	-0.17147657	-0.23869449	-0.120172106	-0.19201222	0.09017605	-0.13321438	-0.09516109	-0.06404619	-0.11136492	0.22690883
0.008181358	-0.60857344	0.7995318	-0.41211966	0.046158653	-0.61003274	-0.2159159	-0.12556775	-0.8367938	0.5110766	0.70675397	-0.9095456	0.819055	-1.0830754	-0.77678376	-0.30566972
0.67025423	0.6308595	-0.4601754	-0.5622776	0.40817392	0.08684621	0.6619998	0.6421504	0.6689731	0.29863468	-0.46910203	0.49104756	-0.689153	0.6872685	0.6568898	-0.46686956
0.21388833	0.46107998	-0.5960308	-0.20821778	0.5488908	0.2978404	-0.108698435	0.2546355	0.10275825	-0.11272061	-0.7078544	0.64483064	-0.031437024	0.3216784	0.22067882	-0.012786067
-0.5706173	-0.25562564	-0.5216706	0.76893204	-1.0723976	0.01010751	-0.19044696	-1.1372294	0.5311328	-0.5292425	0.38679233	-0.3059667	-0.83922917	-0.03919279	0.36896762	0.5874507
0.78295887	0.7998719	0.06369994	-0.45694476	-0.5542302	-0.43047675	0.8626866	0.085804515	0.5592114	0.6056578	0.3857339	-0.26627913	-0.41168448	0.21878925	0.66369325	-0.53708553
-0.58831245	-0.39922485	-0.11219662	0.46307376	0.15012325	0.22995128	-0.5010695	-0.09707325	-0.03720545	-0.5631758	-0.09800581	-0.043518078	-0.17248058	0.10003308	-0.08631898	0.5355888
-0.5358273	-0.49220294	0.15190767	0.3606332	0.32834697	0.2975881	-0.42885122	0.20797113	-0.19007924	-0.34627387	-0.025795223	-0.14616676	-0.024658691	0.07109466	-0.25715446	0.41746145
-0.2939119	-0.29711294	-0.037033	0.17332137	0.44425535	0.34880015	-0.16093464	0.33236146	0.01650951	-0.34564996	-0.20206949	0.012658969	-0.24412458	0.27821714	0.0067725223	0.3437692
-0.22606029	-0.6388498	0.7905175	-0.15115835	0.22279145	-0.4215724	-0.22832967	0.39423835	-0.5984748	0.3597149	0.6608314	-0.77614754	0.61249095	-0.6088901	-0.5354061	-0.07449111
-0.5195466	-0.33700696	-0.30874935	0.46275887	-0.17745775	0.004043156	-0.6033467	-0.46936548	-0.0022556728	-0.5739082	-0.21878946	-0.101731665	-0.3327244	0.04439184	-0.08612002	0.5916368
0.6231736	0.47026268	-0.5712843	-0.753551	0.83807266	-0.1150428	-0.76737547	-0.4612506	-0.7352054	0.65270907	-0.80618995	0.60680455	0.8244121	-0.70312345	-0.73052365	-0.7382608
0.25264105	-0.087926425	0.3560645	-0.30632362	0.13534431	-0.1765728	0.21679457	0.45626923	0.0062165344	0.34466293	0.2122832	-0.23014426	0.0012308932	0.12755483	0.027826171	-0.29275405
-0.047454	-0.19277877	0.17096348	0.0026553057	-0.10647006	-0.20926091	0.052729998	0.022266382	-0.004052827	0.024535725	0.30377123	-0.34180266	-0.12603945	0.031073594	0.051116228	0.10368713
-0.23601721	-0.084180914	-0.3172326	0.110615686	-0.16379257	-0.07771148	-0.44070745	-0.52906215	-0.32909048	-0.29521665	-0.045751207	-0.0075514265	0.15888366	-0.27442995	-0.26659578	0.19798139
-0.42405948	-0.72332305	0.73739076	-0.14683801	0.8082306	-0.4592714	-0.59333706	0.6837472	-0.70482266	0.28888252	0.6358996	-0.7200242	0.77486086	-0.60762846	-0.6921864	0.11855316
0.40766042	0.098693274	0.1523688	-0.33713794	-0.1439698	-0.3698917	0.17190155	-0.061384536	-0.13745387	0.43130082	0.20994243	-0.2643502	0.21254064	-0.29032525	-0.15389474	-0.4241346
0.9472359	0.21441254	1.064105	-0.8158149	-1.3072951	-1.136849	1.0912127	-1.1024725	0.60763997	1.0006311	1.3772993	-1.3193401	-0.6250732	-0.58693826	0.6470483	-0.92554986
0.69267815	0.94159484	-0.9251999	-0.5073009	0.98100847	0.67888516	0.84334207	1.0221806	1.037906	0.12709866	-1.0690916	0.9892041	-0.9961698	1.0580523	1.0334785	-0.3444111
0.122506045	0.06718471	0.02653268	-0.059648257	-0.32433817	-0.32044613	0.13443051	-0.36762834	-0.06508113	0.17980787	0.3651284	-0.2405999	-0.019901909	-0.13997006	0.007956866	-0.11474361
-0.3561648	-0.19179314	-0.20511135	0.33491072	-0.13928618	0.11551256	-0.099955484	-0.17096326	0.12468279	-0.32718554	-0.043779917	0.0029451454	-0.32101667	0.21455576	0.1275843	0.39241233
-0.05706599	-0.2844334	0.21948905	-0.1002771	0.7530861	0.19373153	-0.12446766	0.53277284	-0.09137553	0.036505032	-0.18362556	0.02367874	0.059611585	0.13443238	-0.17678142	0.090210274
-0.2823553	0.14436524	-0.6864895	0.18174903	0.16411467	0.42811766	-0.6662955	-0.571979	-0.09334564	-0.4969074	-0.7891373	0.59157646	0.040289003	-0.08405413	-0.13957989	0.33590022
0.13302666	0.14714655	-0.029760532	-0.023154886	-0.44148713	-0.29480308	0.31284064	-0.2854678	0.21289316	0.19581515	0.37899938	-0.20250435	-0.18820974	0.04624433	0.22200254	-0.14757356
-0.3116251	0.11079776	-0.8785142	0.47056973	-0.22543587	0.5319694	0.008762123	-0.036815405	0.48135847	-0.5140643	-0.3853326	0.43101692	-0.8754221	0.45201623	0.427636	0.41342515
0.05742877	-0.090305366	0.1368795	-0.041611355	-0.21462347	-0.22653128	0.029751645	-0.13117366	-0.044383004	0.103064924	0.26808295	-0.31028605	0.06758992	-0.12958443	-0.09170226	-0.026756719
-0.36654142	-0.80598795	0.71586555	0.03771573	0.55687356	-0.2484867	-0.42212355	0.61564577	-0.5352017	0.13577127	0.8032937	-0.76054394	0.4824824	-0.40008944	-0.5402886	0.108658016
-0.1844311	-0.113560386	-0.14846908	0.18755287	-0.17731613	-0.09719627	-0.36457446	-0.6447743	-0.28009233	-0.1622251	0.05203325	-0.14274079	0.14569096	-0.4028077	-0.24795571	0.23502256
-0.2785212	-0.45043585	0.553967	-0.12244092	0.88755155	0.15250622	-0.10157587	0.86510944	-0.19469087	0.21755356	0.15880416	-0.33642712	0.23690441	0.055489168	-0.26970962	0.08000992
-0.004984442	0.0870888	-0.19288401	-0.15663986	0.19313742	0.018078495	-0.2319689	-0.045165624	-0.11008982	-0.014297043	-0.27210447	0.17335466	0.17124574	-0.051079262	-0.08875266	-0.040631656
-0.44890678	-0.32147577	-0.14043607	0.51010233	-0.06050002	0.30340555	-0.1324714	-0.013449758	0.22756141	-0.5259117	-0.13029337	0.09379317	-0.51509404	0.302998	0.11494221	0.5753531
-0.2855677	-0.5676296	0.3068304	0.20109476	-0.07916997	-0.14608653	-0.1757117	0.05296578	-0.19626027	-0.027450815	0.5403905	-0.4472134	0.043661553	-0.21311276	-0.21972479	0.21494125
-0.3839713	-0.6013219	0.3527263	0.20014	0.14219342	-0.10775944	-0.4983914	-0.18914707	-0.49597335	-0.13688861	0.3256032	-0.53173566	0.32022613	-0.53030723	-0.5717073	0.2967941
-0.30223215	-0.15295784	-0.029612968	0.29345968	0.30581784	0.35498434	-0.104762025	0.22369729	0.08023265	-0.28469113	-0.20398787	0.15333633	-0.26227102	0.2341579	0.023271952	0.2502954
0.047270894	0.36490393	-0.39708242	0.071614414	-0.15966035	0.08247759	0.4126323	0.22522224	0.5821796	-0.06052399	-0.090383545	0.17479864	-0.51132363	0.4394919	0.5023173	0.0054887924
0.27287912	-0.030451087	0.52855176	-0.12679248	-0.7749445	-0.6854655	0.58102345	-0.33112714	0.4351433	0.38169774	0.808518	-0.7167449	-0.54243064	-0.037483435	0.36457607	-0.2803082
0.2694016	0.3400161	-0.3456643	-0.258891	0.7172867	0.19253407	0.2982324	0.6363751	0.45803922	-0.06384421	-0.54542065	0.44960028	-0.4912618	0.584443	0.4784194	-0.04877249
0.41314644	0.23508894	-0.15568827	-0.51305294	0.2368651	-0.24543183	-0.0026325982	0.0010455153	-0.17340833	0.41880658	-0.14614448	0.09858226	0.33500034	-0.16503204	-0.092848055	-0.3927354
-0.22597416	0.028835287	-0.3440027	0.40112177	-0.5665909	-0.005026307	0.07122967	-0.48808447	0.297781	-0.34142393	0.19573925	-0.057952352	-0.5179664	0.15141587	0.35887507	0.29792506
0.0365384	0.22759186	-0.2179594	0.014709422	-0.26626274	-0.16823865	0.028662408	-0.3909366	0.080425605	-0.008429146	0.0675079	-0.004872615	-0.10318393	-0.018419495	0.13416807	0.038389463
-0.19256146	-0.03198243	-0.32059136	0.17214149	0.0049949894	0.13482362	-0.34372535	-0.30523166	-0.04631751	-0.28916505	-0.24938858	0.17335172	-0.03735699	-0.034755997	-0.026618907	0.33007923
0.7620188	0.30971575	0.7806685	-0.60932314	-0.8950153	-0.9042821	0.99011856	-0.3168293	0.50420433	0.8326653	1.0697109	-0.89032376	-0.5135073	-0.18958725	0.5852686	-0.7387869
-0.38957164	-0.2064798	-0.25485235	0.39658076	-0.34651598	0.21940573	-0.21457812	-0.3414274	0.21009028	-0.41840392	0.050121456	0.025106266	-0.4171505	0.15336078	0.10114675	0.43577656
0.74613017	0.9846168	-0.9923861	-0.58011156	0.98723733	0.69609493	0.7829964	1.0177548	0.9789236	0.16227184	-1.0987418	1.0193162	-0.90362453	0.95607775	0.906794	-0.40843475
-0.7581105	-0.2962136	-0.9701587	0.7348585	-0.50526714	0.53213894	-0.71777487	-0.8256035	0.32744172	-0.88220876	-0.7850445	0.57904583	-0.62151676	0.26079568	0.14656034	0.794015
0.6535761	0.46834347	-0.58632237	-0.8662615	1.0337788	0.038360354	-0.83213216	-0.33920085	-0.8112265	0.7461105	-0.97075015	0.5997643	1.0296237	-0.69577724	-0.7267742	-0.82843757
-0.06306638	-0.024805393	0.026460331	-0.039967142	0.5066407	0.09303453	-0.14936784	0.2591062	-0.003381681	-0.12753047	-0.19952138	0.041293938	-0.0018677055	0.14575689	0.035853807	0.08610618
-0.70075893	-0.8321816	0.6276906	0.27646548	0.4966105	-0.07083706	-0.6588872	0.35724184	-0.5569429	-0.16144434	0.59680766	-0.7027061	0.38010985	-0.4919956	-0.60214376	0.4217602
0.12684812	0.4526018	-0.59330994	-0.06500853	0.45640245	0.16426106	0.3018233	0.3845713	0.5559081	-0.153141	-0.5930769	0.49120477	-0.5321757	0.58769006	0.5197088	0.101705484
0.034661736	0.5164571	-0.71792614	0.09159922	0.108760975	0.13931115	-0.031585034	-0.1731781	0.17271154	-0.20383225	-0.40943527	0.45981115	-0.13211966	0.1835915	0.24719107	0.16006073
-0.49077368	-0.2593421	-0.09482678	0.3980976	-0.06310492	0.23850381	-0.5085559	-0.38281035	-0.17816323	-0.46682504	-0.12267868	-0.0004167321	-0.08192777	-0.10629673	-0.23654513	0.42151365
-0.22411872	0.17259526	-0.47693315	0.27424365	0.10941338	0.29532692	-0.3320074	-0.33034286	0.02382757	-0.40978384	-0.47704875	0.34201458	-0.027870405	0.044174526	0.0021455998	0.291565
0.64176434	0.4168189	0.30452746	-0.42838946	-0.68397903	-0.5318879	0.70516336	0.02447449	0.45474076	0.5779787	0.6506413	-0.4537848	-0.5150142	0.1534474	0.48888746	-0.49579042
-0.11977851	-0.7639258	0.9596485	-0.18506135	-0.05794833	-0.5800456	0.062448204	0.44075224	-0.56363654	0.4828219	1.0661292	-1.1366493	0.4200141	-0.67603683	-0.54433584	-0.16358232
-0.33963066	-0.30916867	-0.05611344	0.25689334	-0.014383007	0.1355387	-0.23375286	-0.18537632	-0.13626081	-0.41444135	0.010391953	-0.052352283	-0.04110682	-0.118195966	-0.18341951	0.29622653
-0.7347342	-0.2528402	-0.7709084	0.7080497	-0.6288667	0.219056	-0.67306185	-0.884698	0.14988421	-0.82622087	-0.53881073	0.12684269	-0.55478776	0.080079064	-0.027719334	0.7965364
0.51275986	0.8186049	-0.49868083	-0.18534341	0.10584198	0.2231838	0.70575094	0.6079319	0.8978319	0.09593903	-0.29906735	0.49605125	-0.91335624	0.6959473	0.81250966	-0.14872144
0.6104218	0.43553242	-0.09178659	-0.62701994	0.41701224	-0.08318273	0.27173045	0.43964443	0.15034063	0.45490336	-0.26806042	0.23889607	-0.034749445	0.24328095	0.2501925	-0.5651268
-0.16357686	-0.38023886	0.13503127	0.015438165	0.21104598	-0.11567628	-0.47564775	-0.32609373	-0.5475136	0.013399484	0.09971996	-0.26737848	0.3903346	-0.5054938	-0.5060074	0.022124812
-0.07411234	-0.2861765	0.23261194	-0.2806189	0.55743295	-0.19061872	-0.40419638	0.33372134	-0.452734	0.22508645	-0.022364635	-0.24343237	0.44371536	-0.23798199	-0.39842296	-0.0036120883
0.12451472	-0.2629458	0.26763305	-0.44563973	0.33573315	-0.30030003	-0.40677053	-0.08884265	-0.55648285	0.32726827	0.09649107	-0.2921604	0.6842258	-0.5682834	-0.5230645	-0.293092
-0.21601836	-0.29086542	0.19562432	0.028123368	0.36056387	0.055675495	-0.39903453	0.025317572	-0.34449515	-0.19850357	-0.028450793	-0.11020566	0.27252468	-0.17356913	-0.33431843	0.19557674
0.8602106	0.5808561	-0.16091049	-0.84876555	0.010520273	-0.42591265	0.105778605	-0.18615468	-0.23693764	0.7470305	-0.069077305	-0.03688726	0.4713761	-0.35612443	-0.11416412	-0.8251034
0.8336085	0.9601239	-0.8898839	-0.65347964	1.0360183	0.66184556	0.76269615	1.0035512	0.9113106	0.26891935	-1.1159805	1.0267471	-0.8766851	0.9631563	0.89860076	-0.54591835
-0.41219288	-0.40899786	0.07706749	0.25276092	0.48602155	0.42821246	-0.38052168	0.2708775	-0.15201017	-0.36065227	-0.15976863	-0.006437191	-0.02752065	0.11886478	-0.13282469	0.44795915
0.9416907	0.6005167	0.79861933	-0.7790342	-1.1975943	-1.0398792	1.038863	-1.1122209	0.7009839	0.9511357	1.1235908	-1.1891212	-0.79769987	-0.5263914	0.7394021	-0.9029813
-0.35427025	-0.19221899	-0.08417545	0.21116173	0.12835248	0.1728631	-0.21094927	-0.1531351	-0.061975494	-0.29812878	-0.10368854	0.022828009	-0.14983054	0.067116305	-0.093377285	0.34431267
0.14524148	0.35452622	-0.5361086	-0.31466568	0.27904397	-0.07179416	-0.5518315	-0.69874555	-0.5261972	0.0066048885	-0.5634736	0.44555345	0.5122655	-0.47520497	-0.42232022	-0.08788783
-0.1366157	-0.059529085	0.00094555307	0.2595345	-0.379958	-0.043530755	0.0592158	-0.4280551	0.10812229	-0.14231874	0.29482052	-0.15443885	-0.29742208	0.0032947983	0.15527025	0.13654844
-0.51653194	-0.9931836	0.9752989	-0.4447883	1.164701	-0.80424654	-0.8604687	1.1431569	-0.90848804	0.6158988	1.0303932	-0.98061967	1.0681416	-0.9389761	-0.93762803	-0.0232081
-0.8417085	-0.49480394	-0.23091455	0.65462697	-0.32246026	0.47427243	-0.84961355	-0.6225589	-0.03062928	-0.78500307	-0.16486979	0.057554606	-0.3968719	0.11839898	-0.036987953	0.7569243
-0.36298537	0.30245528	-0.9922127	0.46484876	-0.37368637	0.4605852	-0.5280866	-0.7905698	0.25824034	-0.57180417	-0.801156	0.7932826	-0.33492482	0.28417292	0.32078105	0.48889768
-0.121231675	-0.09893173	0.07869266	0.19596793	-0.12246486	-0.06782226	0.046919346	0.013342309	0.18436795	-0.072728835	0.22236906	-0.16611433	-0.31561378	0.12962267	0.10431066	0.24489148
-0.40906614	-0.21949092	-0.10298628	0.39740545	-0.06716609	0.1665071	-0.26011702	-0.141889	0.09565689	-0.37554422	-0.051661316	0.04429662	-0.3251743	0.13309611	0.040852506	0.37238464
0.28211793	0.12038775	-0.046795156	-0.27090642	-0.11456153	-0.3486163	-0.10039264	-0.47943887	-0.2797263	0.24847583	0.04463136	-0.07416129	0.4169693	-0.5033674	-0.27243376	-0.33157554
-0.03052833	-0.04141255	-0.05428695	-0.04039293	0.20636827	0.05738178	-0.17536525	0.0060895695	-0.21090311	-0.023636807	-0.23203541	0.039530914	0.10927434	-0.09681143	-0.12832078	-0.0137776565
0.3037537	0.24353665	-0.16189156	-0.28222492	-0.099072196	-0.2385823	0.022569733	-0.19675328	-0.027386425	0.19164078	0.027246905	-0.1077659	0.1323094	-0.115672685	0.04611631	-0.23426674
-0.13349669	0.39653084	-0.6017366	0.31037572	0.046725675	0.36956704	0.19339894	0.21849078	0.64619344	-0.46690568	-0.5728466	0.5425308	-0.7252288	0.6103342	0.6184759	0.42455146
0.19553682	0.07591495	0.044312727	-0.42262146	1.0502236	0.39900163	0.24701895	0.9798448	0.26299173	0.17247997	-0.4227997	0.2725013	-0.1715367	0.40544996	0.16455138	-0.12388841
0.055160142	-0.2371261	0.3563978	-0.29572555	0.5516904	-0.124818	-0.049508303	0.51282406	-0.2424443	0.30998865	0.09279166	-0.24307579	0.31046858	0.015806533	-0.20783737	-0.1788574
0.11479801	0.53150636	-0.52198106	0.029345352	-0.45662394	-0.19387534	0.08643268	-0.7567512	0.20613731	-0.135895	-0.06758212	0.16043206	-0.15150252	-0.022420505	0.29005045	0.024711704
-0.13905095	0.17960845	-0.3369662	0.2157951	-0.17679547	0.11091542	0.11604528	-0.08854675	0.36591864	-0.29396987	-0.1607968	0.19919932	-0.47301236	0.3485617	0.35699177	0.25733325
0.013391989	-0.049967382	-0.06900795	0.0008573525	0.12906386	-0.110980794	-0.112360895	-0.048970714	-0.08791624	-0.022920156	-0.07381317	-0.011679447	0.016426463	-0.03400905	-0.09059813	0.13267191
-0.9409732	-0.5712442	-0.52541065	0.9265589	-0.45931736	0.6021185	-0.7993593	-0.7892456	0.12920275	-0.93339616	-0.2850843	0.14577267	-0.6342526	0.1874136	-0.03120087	0.8876284
0.44488415	0.72120374	-0.4833626	-0.46954414	0.16429506	-0.2068485	-0.2810749	-0.6548515	-0.45427188	0.36852235	-0.37352616	0.35446656	0.5275845	-0.5319196	-0.33536544	-0.43234983
0.102292016	-0.18064387	0.14851192	-0.27851152	0.36074015	-0.20664449	-0.24653141	0.041421883	-0.3667529	0.25497645	-0.1014769	-0.16791762	0.39738482	-0.2929409	-0.41852137	-0.2642853
0.008643521	0.26181644	-0.51192087	0.07115701	0.14522868	0.24059913	-0.12901437	-0.11605039	0.14267804	-0.2187535	-0.504694	0.48049417	-0.027862867	0.1685051	0.11789883	0.18952051
-0.10790286	0.19697972	-0.16155246	0.28546456	0.1402128	0.3052487	0.3423749	0.463681	0.56828505	-0.2332944	-0.28843707	0.2870918	-0.694905	0.5783038	0.48189855	0.30190837
-0.07264897	0.065555274	-0.48525435	-0.11095033	0.5521719	0.20585491	-0.77809006	-0.48430437	-0.49660546	-0.1612512	-0.7831109	0.41284794	0.5223571	-0.42508298	-0.55235434	0.12649007
